1.458505630493164 
0.5211983919143677 
4.274147987365723 
1.1761651039123535 
2.483119010925293 
-2.5293145179748535 
0.2520380914211273 
-12.505959510803223 
-3.0190370082855225 
-12.655670166015625 
2.1622185707092285 
-6.175362586975098 
4.489211559295654 
-1.640898585319519 
0.13031452894210815 
-12.463972091674805 
14.853236198425293 
3.1920154094696045 
-3.8284964561462402 
7.285826683044434 
7.010827541351318 
-0.2083878070116043 
-7.381439208984375 
8.726163864135742 
4.110475063323975 
5.371740341186523 
0.5574373006820679 
-7.899096965789795 
16.604412078857422 
-1.5903116464614868 
-3.5781829357147217 
-3.334221363067627 
3.5399861335754395 
1.8741798400878906 
6.6078877449035645 
-1.9226043224334717 
19.089183807373047 
-1.7795566320419312 
12.205305099487305 
-8.767457962036133 
-3.4908864498138428 
2.336388111114502 
-1.7569307088851929 
-4.331367492675781 
11.810653686523438 
-7.627013683319092 
-2.199589967727661 
-0.19980153441429138 
-4.452184200286865 
-3.398082971572876 
-0.6998802423477173 
3.4779629707336426 
8.813203811645508 
-6.432848930358887 
-6.507147312164307 
10.370162963867188 
-5.6070027351379395 
3.3017983436584473 
0.6695420145988464 
-11.152671813964844 
-15.474991798400879 
7.7235822677612305 
-0.7766392827033997 
-12.478751182556152 
-1.066799521446228 
-1.398095965385437 
-1.564231276512146 
-0.3936503231525421 
7.474320411682129 
6.448051929473877 
-10.450757026672363 
-1.0038179159164429 
12.164681434631348 
6.327178955078125 
-5.4901909828186035 
-3.783890724182129 
13.981341361999512 
1.6183810234069824 
0.1816965788602829 
-0.14478205144405365 
1.4051434993743896 
-10.958478927612305 
2.4801316261291504 
11.240586280822754 
0.3487800657749176 
-6.200930118560791 
15.235264778137207 
-0.19769205152988434 
-2.4936435222625732 
-8.31056022644043 
-4.7584028244018555 
10.273664474487305 
4.85712194442749 
-9.004304885864258 
1.9856513738632202 
-23.037527084350586 
-8.241230964660645 
-2.2021403312683105 
6.813716888427734 
-1.4114806652069092 
-8.148077011108398 
-2.207773447036743 
-8.555841445922852 
-1.4316823482513428 
-2.8529114723205566 
-3.3986568450927734 
-7.996657848358154 
2.3949477672576904 
-5.100245952606201 
0.8406147360801697 
8.465860366821289 
0.060333605855703354 
-2.7962071895599365 
-1.2870244979858398 
-5.245105743408203 
-9.25735855102539 
-3.2187955379486084 
-14.956542015075684 
8.21565055847168 
2.4690754413604736 
-12.4498291015625 
6.784670352935791 
0.37718474864959717 
5.208309650421143 
5.432544231414795 
22.48832130432129 
-8.591365814208984 
6.646510124206543 
2.6505439281463623 
3.7208266258239746 
23.948978424072266 
-10.955245018005371 
-5.084681510925293 
-2.824542999267578 
19.430744171142578 
3.425351142883301 
-4.61514949798584 
-17.228736877441406 
-7.90133810043335 
3.2238962650299072 
-2.6400325298309326 
-13.32836627960205 
4.049731254577637 
-1.0452402830123901 
7.854931354522705 
-3.944606065750122 
10.950582504272461 
-4.554134368896484 
-1.2587366104125977 
8.180948257446289 
-3.132347822189331 
-6.697619438171387 
-2.744499444961548 
-4.681784152984619 
4.216726779937744 
6.00364351272583 
2.2806711196899414 
3.3553919792175293 
-10.38214111328125 
-3.8125388622283936 
4.149499893188477 
-6.078487873077393 
5.4613447189331055 
-0.11946076899766922 
-5.273820877075195 
3.0544869899749756 
-6.123819828033447 
1.2903122901916504 
1.4635733366012573 
0.22835497558116913 
-5.383516788482666 
-5.525152206420898 
1.4300967454910278 
-2.9755892753601074 
1.0801897048950195 
-7.818783283233643 
-5.958162784576416 
9.218338012695312 
-5.717056751251221 
-2.749558925628662 
0.7739619016647339 
3.9092235565185547 
7.072276592254639 
9.830698013305664 
5.8146233558654785 
-13.116291046142578 
-1.2106072902679443 
1.4843040704727173 
4.881440162658691 
-3.1331677436828613 
2.7128665447235107 
-3.044888496398926 
-6.640519618988037 
-0.25814831256866455 
3.933523178100586 
1.3018664121627808 
9.874363899230957 
-13.196356773376465 
4.197166919708252 
-3.8977880477905273 
0.5542494654655457 
5.224738121032715 
-9.686349868774414 
15.962907791137695 
-1.1564637422561646 
14.044787406921387 
-2.9084231853485107 
0.6796361804008484 
3.2060039043426514 
-0.8331406116485596 
-6.231142997741699 
4.135531902313232 
-0.8735596537590027 
-7.537561893463135 
0.31828030943870544 
2.6587183475494385 
-0.4083414077758789 
22.97344398498535 
-4.766275405883789 
0.84691321849823 
-4.970736980438232 
6.382565975189209 
1.7168551683425903 
0.32628491520881653 
2.3604650497436523 
1.1860421895980835 
2.573695421218872 
-4.4822773933410645 
0.959994375705719 
-6.272775650024414 
-15.080838203430176 
-3.673771858215332 
-3.278132677078247 
1.211516261100769 
-9.715035438537598 
18.48458480834961 
3.2903707027435303 
-3.6582603454589844 
1.3969571590423584 
3.6014158725738525 
0.16565127670764923 
1.1017199754714966 
-5.520899295806885 
-19.5111083984375 
-1.1863799095153809 
-5.90346097946167 
-6.4046196937561035 
-3.451674222946167 
-0.505393922328949 
-0.9042356014251709 
-7.823870658874512 
-2.563009262084961 
-2.6222829818725586 
2.16733980178833 
-7.027162551879883 
2.4757702350616455 
-6.9434428215026855 
-4.022562503814697 
13.898404121398926 
-1.8517056703567505 
11.546205520629883 
16.828346252441406 
-3.030703067779541 
-0.9161902070045471 
4.615129470825195 
3.063215732574463 
-7.429851055145264 
23.738786697387695 
5.439023494720459 
9.252477645874023 
2.823115348815918 
-4.964491844177246 
-4.152998447418213 
0.3371911644935608 
-8.477213859558105 
-5.059769630432129 
1.839595079421997 
-1.2722194194793701 
3.486938953399658 
1.4691935777664185 
1.001356840133667 
7.674427509307861 
-4.70698881149292 
-2.7232675552368164 
10.518608093261719 
4.01938533782959 
-14.451821327209473 
7.817203044891357 
-9.173595428466797 
-5.630082607269287 
3.1502864360809326 
-3.5976788997650146 
1.1069689989089966 
-22.595722198486328 
1.6739046573638916 
2.439950466156006 
4.397643089294434 
8.093957901000977 
-14.808876037597656 
-5.237339019775391 
-9.575864791870117 
-24.125694274902344 
0.42812374234199524 
-6.262696743011475 
13.775690078735352 
1.3224246501922607 
3.6216049194335938 
-2.6864805221557617 
-14.31387710571289 
-5.429162979125977 
18.602266311645508 
6.003970623016357 
1.472550630569458 
6.594884872436523 
3.189990997314453 
6.667202472686768 
-13.614416122436523 
-6.610166072845459 
-11.097360610961914 
13.355626106262207 
12.725149154663086 
-5.742160797119141 
-2.1000559329986572 
0.19006146490573883 
-2.8661763668060303 
-9.33530330657959 
10.514257431030273 
-2.1860833168029785 
14.945352554321289 
-4.696130752563477 
0.9805555939674377 
-13.257936477661133 
-1.4164443016052246 
9.732222557067871 
12.701645851135254 
2.1896660327911377 
2.061612367630005 
9.86959457397461 
-0.5455774664878845 
6.69736909866333 
-0.09583620727062225 
-5.016679763793945 
-6.915152072906494 
1.0442899465560913 
1.0815668106079102 
-1.687404990196228 
-5.44743537902832 
-6.411760330200195 
-4.25368595123291 
-1.6213455200195312 
-5.554002285003662 
-3.58152174949646 
5.381054401397705 
-26.31694793701172 
13.970261573791504 
-1.8904918432235718 
1.125045895576477 
-7.930541515350342 
18.762510299682617 
-4.120291709899902 
2.7476418018341064 
5.286501407623291 
-15.810160636901855 
4.192818641662598 
0.23653382062911987 
-17.74339485168457 
1.3322627544403076 
14.997268676757812 
-8.300250053405762 
-2.8296728134155273 
0.2760915458202362 
-3.665283679962158 
-11.795550346374512 
-6.478423118591309 
6.570433139801025 
5.505970001220703 
-12.977609634399414 
-11.668611526489258 
-10.470772743225098 
0.6856595873832703 
-17.728836059570312 
-12.568882942199707 
3.180800676345825 
0.9197434782981873 
-2.0401599407196045 
-15.164600372314453 
-1.7952330112457275 
0.40048980712890625 
4.451361179351807 
4.633539199829102 
1.3641183376312256 
6.689828395843506 
-13.474992752075195 
-1.736592411994934 
-7.584352016448975 
3.2629034519195557 
-11.186868667602539 
-5.958780765533447 
14.097175598144531 
-1.8474730253219604 
-4.352104663848877 
7.578336238861084 
5.505410194396973 
1.0699431896209717 
5.635133266448975 
-1.3554805517196655 
-0.5407912731170654 
19.960651397705078 
-8.024828910827637 
0.9276145100593567 
-12.942584991455078 
6.042566299438477 
-7.140618801116943 
-7.165677070617676 
2.959754228591919 
-22.091482162475586 
-2.1873719692230225 
1.9810731410980225 
15.530881881713867 
-7.186013698577881 
5.7490949630737305 
-7.2964043617248535 
-5.197105884552002 
-3.8502750396728516 
-1.6418864727020264 
-3.1795499324798584 
-4.887616157531738 
33.95126724243164 
-5.045278549194336 
-5.8568115234375 
-8.709855079650879 
-4.018191337585449 
-14.672369003295898 
4.111443996429443 
1.3056327104568481 
-4.89198637008667 
0.4553126096725464 
-1.020576000213623 
-2.6686289310455322 
-2.001466989517212 
3.300877571105957 
-24.483064651489258 
-5.099174499511719 
-24.996721267700195 
-6.424925804138184 
11.83139419555664 
18.614843368530273 
-7.852768421173096 
5.632657051086426 
6.410397052764893 
4.3017048835754395 
-1.797095775604248 
-3.5039987564086914 
-4.554287910461426 
4.256466388702393 
1.7179075479507446 
8.81204605102539 
4.488075256347656 
2.078263521194458 
5.065600395202637 
1.3864768743515015 
-6.242424964904785 
16.31027603149414 
-5.321711540222168 
5.996786594390869 
1.9569166898727417 
8.995877265930176 
-5.888169288635254 
-16.7259578704834 
7.464904308319092 
-2.1171793937683105 
2.574483871459961 
-6.798850059509277 
21.37248992919922 
-5.376343250274658 
1.102663278579712 
-28.34604835510254 
-16.663578033447266 
5.77066707611084 
9.006681442260742 
4.480687618255615 
4.761749267578125 
8.324073791503906 
5.502992630004883 
5.818886756896973 
0.11320890486240387 
-1.5978295803070068 
-2.5943431854248047 
0.16243073344230652 
10.931015968322754 
0.8135342001914978 
-13.177265167236328 
9.012615203857422 
-10.319931030273438 
3.0613505840301514 
2.8758256435394287 
6.538852214813232 
-1.3535245656967163 
4.45364236831665 
6.920713424682617 
2.8346357345581055 
6.340261459350586 
-1.3225849866867065 
0.7232844829559326 
-0.7479051947593689 
0.7733548283576965 
-0.36677929759025574 
4.285938739776611 
0.9207950234413147 
-5.281447887420654 
-7.883032321929932 
0.33864477276802063 
-13.392753601074219 
-9.035202026367188 
10.09240436553955 
-0.5177074074745178 
2.4666647911071777 
18.8482723236084 
7.395726680755615 
-2.7023866176605225 
-8.883910179138184 
-15.169426918029785 
6.427041530609131 
9.278905868530273 
8.72947883605957 
2.962519884109497 
0.9503823518753052 
-7.067558288574219 
1.4370896816253662 
15.273351669311523 
11.846586227416992 
6.063704013824463 
-8.809691429138184 
9.041722297668457 
3.023150682449341 
-2.5841689109802246 
-1.5006279945373535 
-4.607891082763672 
-8.847999572753906 
-0.34872162342071533 
14.020837783813477 
5.2030158042907715 
-9.212589263916016 
3.4609718322753906 
8.101985931396484 
5.132080078125 
-17.831939697265625 
-9.270792007446289 
-4.00569486618042 
-7.600895881652832 
-8.690901756286621 
5.702393054962158 
-11.341026306152344 
3.0138962268829346 
-16.0228328704834 
14.68795394897461 
-0.0033982323948293924 
6.028781890869141 
-0.9861653447151184 
2.8358139991760254 
3.7295472621917725 
1.9728385210037231 
2.606104850769043 
-3.26229190826416 
-0.3093676269054413 
-4.440228462219238 
8.301148414611816 
11.10432243347168 
16.396841049194336 
-14.259376525878906 
20.03348731994629 
-15.608376502990723 
-16.094331741333008 
-11.07553482055664 
4.202600002288818 
7.893178462982178 
-0.06383484601974487 
-20.136741638183594 
-4.559076309204102 
-5.787328243255615 
9.245373725891113 
-15.070765495300293 
0.13250583410263062 
9.62368392944336 
-6.750338554382324 
3.379659652709961 
3.6131339073181152 
-8.757574081420898 
5.796930313110352 
7.679817199707031 
-5.7257561683654785 
-11.120387077331543 
16.810733795166016 
1.0574684143066406 
-4.820232391357422 
4.72533655166626 
-2.681284189224243 
0.3271024823188782 
6.213868141174316 
-2.0864386558532715 
-0.1644168645143509 
25.53436851501465 
-1.8580125570297241 
1.8222025632858276 
-10.300836563110352 
20.594194412231445 
-8.806647300720215 
-7.858285903930664 
0.9730523228645325 
2.315678834915161 
-3.0219614505767822 
-7.658322811126709 
4.34865140914917 
16.713211059570312 
6.995812892913818 
3.9767212867736816 
15.646540641784668 
-6.721088886260986 
-1.8472040891647339 
-5.134359359741211 
-3.7338900566101074 
-1.3154737949371338 
-11.26037883758545 
-0.2156621366739273 
-6.768093585968018 
-0.5065004825592041 
0.6071628332138062 
0.30342772603034973 
-14.654242515563965 
3.1519052982330322 
-9.861024856567383 
9.698781967163086 
1.8038266897201538 
11.303645133972168 
19.204072952270508 
16.212032318115234 
14.876335144042969 
-12.935698509216309 
1.9234882593154907 
2.276445150375366 
-11.785828590393066 
-5.837020397186279 
10.624516487121582 
-1.1472620964050293 
-12.288041114807129 
6.792442798614502 
-4.153622627258301 
1.696566104888916 
-1.0151394605636597 
-7.738279342651367 
-11.770398139953613 
12.486434936523438 
-2.0910658836364746 
-0.750781774520874 
4.2486772537231445 
-6.416153907775879 
-5.965814113616943 
-4.192539691925049 
-2.87799334526062 
5.010812759399414 
-13.310288429260254 
-10.047619819641113 
-8.35810375213623 
-21.58112335205078 
7.187407493591309 
-13.578460693359375 
11.728403091430664 
-9.565638542175293 
8.957106590270996 
16.6394100189209 
-3.475053310394287 
-8.202010154724121 
5.222862720489502 
-4.086175918579102 
4.2384562492370605 
0.1725137084722519 
8.395539283752441 
-8.626262664794922 
-1.7114126682281494 
0.3519529104232788 
11.592665672302246 
2.0779061317443848 
-4.22501802444458 
-3.8926584720611572 
6.254831790924072 
-0.9758840203285217 
-6.620498180389404 
-0.3032200038433075 
-3.0942864418029785 
4.475156784057617 
-7.047365188598633 
-12.846153259277344 
12.3600492477417 
1.4144728183746338 
-11.219842910766602 
3.7169065475463867 
-13.650938987731934 
-4.801050662994385 
15.364452362060547 
17.85194206237793 
-4.0984206199646 
1.5738449096679688 
-8.395222663879395 
1.7876721620559692 
4.23883056640625 
-13.61724853515625 
-7.639440536499023 
1.24710214138031 
7.32749080657959 
3.351327419281006 
10.013140678405762 
2.8064353466033936 
4.453212261199951 
0.11833788454532623 
7.523689270019531 
-3.701225757598877 
3.782463788986206 
1.5331580638885498 
10.173436164855957 
-10.58539867401123 
1.519229531288147 
-6.019906997680664 
10.973761558532715 
-13.646172523498535 
-2.0157973766326904 
3.505514144897461 
-1.6937634944915771 
-5.053276062011719 
12.292234420776367 
-10.434541702270508 
-12.189977645874023 
11.621198654174805 
4.884861469268799 
2.341280221939087 
-0.972410261631012 
-10.762073516845703 
-12.633597373962402 
11.61221694946289 
10.048612594604492 
-7.605838298797607 
0.7553979754447937 
-3.3305163383483887 
-1.0885777473449707 
-4.772694110870361 
-3.07321834564209 
11.281041145324707 
13.991357803344727 
9.898058891296387 
2.3523783683776855 
-1.8888434171676636 
-11.749701499938965 
3.0567679405212402 
-1.3284446001052856 
3.940319299697876 
-10.483711242675781 
-2.070298433303833 
-8.04423999786377 
-4.278340816497803 
-6.453799724578857 
9.044687271118164 
6.989750385284424 
6.715077877044678 
-8.048379898071289 
-9.616218566894531 
-6.461026668548584 
-9.76909065246582 
-6.754572868347168 
-11.333703994750977 
-2.0959644317626953 
-18.367765426635742 
-3.20509672164917 
15.059203147888184 
-0.40142789483070374 
71.64911651611328 
6.769944190979004 
5.2338128089904785 
1.9694043397903442 
4.089059829711914 
-5.825543403625488 
-1.6783277988433838 
-3.0116708278656006 
-2.61566424369812 
5.24688720703125 
-4.924464702606201 
-3.3480260372161865 
2.692902088165283 
-2.9147253036499023 
-0.8843756914138794 
-3.2402989864349365 
-2.984799385070801 
1.8287622928619385 
-6.761505126953125 
-5.560521125793457 
0.6012821197509766 
5.255466461181641 
0.29856163263320923 
-6.673243045806885 
-8.873851776123047 
10.197486877441406 
-6.908565044403076 
19.106657028198242 
20.43132209777832 
0.3518259823322296 
-1.9779646396636963 
-1.621641755104065 
9.06049633026123 
-6.3088507652282715 
16.9228572845459 
5.958244800567627 
-7.038636207580566 
10.192190170288086 
-20.760387420654297 
-16.222776412963867 
0.0704510286450386 
-1.8116360902786255 
1.8303196430206299 
-3.7534687519073486 
-0.4623231589794159 
-8.6401948928833 
2.706009864807129 
8.631056785583496 
13.54568099975586 
-6.096023082733154 
-1.0638617277145386 
-0.43226683139801025 
-3.873137950897217 
-0.3971758484840393 
-15.797639846801758 
3.905815601348877 
-20.19853973388672 
-3.7269692420959473 
-2.1518537998199463 
1.1368240118026733 
6.431535720825195 
9.239182472229004 
-4.512956619262695 
-4.045426845550537 
-1.2401095628738403 
18.382253646850586 
-15.979811668395996 
8.467073440551758 
4.265921592712402 
-4.535229206085205 
5.445672035217285 
-1.8989968299865723 
5.069019794464111 
-6.564293384552002 
-4.070291519165039 
12.033102035522461 
-22.610366821289062 
-7.479206562042236 
-3.530517578125 
2.583242893218994 
-1.6317108869552612 
-0.34632766246795654 
0.7872757315635681 
-1.697445034980774 
0.45071789622306824 
14.642802238464355 
-0.319452166557312 
1.6004080772399902 
1.101667046546936 
14.948786735534668 
-20.61522674560547 
-1.3543429374694824 
5.172524929046631 
9.671184539794922 
3.1426119804382324 
4.687320232391357 
11.252135276794434 
-0.8201970458030701 
8.131189346313477 
5.294590473175049 
-0.7871423363685608 
20.194421768188477 
0.997772216796875 
-2.5812113285064697 
2.011747360229492 
-0.09467975795269012 
-18.992876052856445 
1.0530803203582764 
-4.426717281341553 
2.410238742828369 
1.4429914951324463 
-1.4137225151062012 
1.4615094661712646 
-4.139175891876221 
2.140316963195801 
2.918426275253296 
-0.25135764479637146 
-2.2580342292785645 
-10.723281860351562 
2.27455735206604 
4.090424537658691 
-0.6977233290672302 
6.5034918785095215 
2.4020297527313232 
-4.333176136016846 
-0.6528894901275635 
-7.60251522064209 
4.838975429534912 
6.705397605895996 
5.999838829040527 
1.76388680934906 
-12.599361419677734 
-8.643709182739258 
-4.432641983032227 
-3.148747444152832 
-20.84989356994629 
4.230898380279541 
5.317935943603516 
7.346743106842041 
-11.358925819396973 
0.8906790614128113 
0.7286337614059448 
-8.97736930847168 
-4.728227138519287 
-0.25257423520088196 
-1.6017098426818848 
-15.197942733764648 
32.27511215209961 
-4.3896894454956055 
0.42012807726860046 
3.4359567165374756 
-3.096376657485962 
17.028797149658203 
-6.871440410614014 
-1.6522326469421387 
2.749108076095581 
-2.435563802719116 
5.052759170532227 
5.809054851531982 
1.0929776430130005 
3.7525830268859863 
-2.7355313301086426 
7.700790882110596 
3.299180746078491 
-11.833319664001465 
-1.1700470447540283 
-1.4742718935012817 
4.297422409057617 
-5.798995494842529 
-2.042931079864502 
-3.3194639682769775 
-1.2919995784759521 
5.39408540725708 
-0.8997626304626465 
5.719961166381836 
-6.324610233306885 
7.505825042724609 
5.047961235046387 
-6.127732276916504 
-7.35938024520874 
11.635600090026855 
9.231961250305176 
4.358315944671631 
-3.450606346130371 
-3.483701705932617 
0.10361376404762268 
-12.052749633789062 
-3.642549753189087 
33.55022048950195 
-12.214016914367676 
9.415078163146973 
4.225526809692383 
-4.137942790985107 
-2.5964019298553467 
-0.1923765391111374 
-0.4773942530155182 
0.7752149701118469 
24.986722946166992 
-1.06841242313385 
2.5813567638397217 
6.4084649085998535 
1.4633376598358154 
1.7034552097320557 
-19.03145408630371 
-5.639092922210693 
-1.8322412967681885 
-7.993697166442871 
2.3711464405059814 
0.8015618324279785 
2.9926235675811768 
-2.1908414363861084 
1.4975579977035522 
-25.88669776916504 
-9.895306587219238 
-1.6748651266098022 
6.757409572601318 
12.87023639678955 
-11.310546875 
-2.2318432331085205 
1.3279070854187012 
-3.5317819118499756 
2.7620022296905518 
-5.475251197814941 
4.950393199920654 
0.040095217525959015 
-0.8162766098976135 
13.75989055633545 
-9.209200859069824 
-0.9722830653190613 
-4.3533124923706055 
-13.494444847106934 
2.478581428527832 
9.297372817993164 
-19.147380828857422 
-15.3942232131958 
19.376379013061523 
2.9027955532073975 
2.6105966567993164 
-5.958458423614502 
3.2274980545043945 
1.2119077444076538 
-0.6080062389373779 
6.199863910675049 
-2.842353582382202 
8.167670249938965 
1.170263648033142 
-12.629033088684082 
-1.8633393049240112 
4.890345096588135 
-2.0386321544647217 
7.063703536987305 
8.570870399475098 
6.267483711242676 
-10.278753280639648 
-0.4341996908187866 
-7.912189483642578 
-8.992719650268555 
5.6475419998168945 
2.592451333999634 
-4.943610668182373 
-4.2248992919921875 
-6.600411891937256 
3.0608670711517334 
-2.981038808822632 
-7.790097236633301 
11.309404373168945 
-9.127707481384277 
-2.168269395828247 
-2.5147292613983154 
9.051642417907715 
8.124845504760742 
-1.2262712717056274 
-5.779821872711182 
-1.4447243213653564 
-3.033060312271118 
-7.8833723068237305 
7.214670658111572 
-2.784583568572998 
-3.7079193592071533 
4.126429080963135 
2.8077895641326904 
-2.81534481048584 
1.572917103767395 
-9.455155372619629 
-2.6092238426208496 
4.448751449584961 
-0.8994027376174927 
-7.740850925445557 
3.5281002521514893 
-8.769554138183594 
-8.022756576538086 
3.681431531906128 
0.5934280753135681 
-0.4270716905593872 
4.961857795715332 
5.10730504989624 
-2.8213322162628174 
4.573744773864746 
-17.19406509399414 
-5.5237507820129395 
-4.688803195953369 
-10.3585786819458 
9.643180847167969 
-0.8274305462837219 
-3.7090556621551514 
-1.5634759664535522 
-4.368106842041016 
0.5515199303627014 
7.808223724365234 
0.5671530961990356 
-3.685330867767334 
-13.69843864440918 
-0.3475632667541504 
3.0958104133605957 
-3.224377155303955 
-5.662355422973633 
-1.1347968578338623 
3.0325565338134766 
-3.5560696125030518 
1.0926119089126587 
-0.6580604314804077 
1.9025530815124512 
-4.5489044189453125 
-1.2452229261398315 
-0.7983490228652954 
-0.9065865874290466 
-1.6928985118865967 
0.8611048460006714 
4.255495071411133 
18.549962997436523 
1.0458725690841675 
1.8351587057113647 
2.599971055984497 
10.5587158203125 
5.068661212921143 
-1.161737322807312 
13.1472806930542 
6.7761383056640625 
2.4982242584228516 
-3.9395251274108887 
4.939739227294922 
-2.8215901851654053 
5.053805828094482 
-7.394713878631592 
-4.740828037261963 
7.865346431732178 
7.980297565460205 
12.703462600708008 
-3.6721324920654297 
-3.56103777885437 
-8.852485656738281 
-2.901557683944702 
-1.1182667016983032 
12.487003326416016 
1.5646766424179077 
-1.8497611284255981 
3.29610538482666 
-12.174599647521973 
-6.261195182800293 
-7.681521415710449 
4.0013227462768555 
8.003905296325684 
16.72748565673828 
-5.222418308258057 
-7.4777398109436035 
1.8232027292251587 
13.76062297821045 
-4.905827045440674 
-6.0124592781066895 
-1.2559399604797363 
9.974640846252441 
-1.2502881288528442 
-0.6414787769317627 
-4.876948356628418 
5.553088665008545 
4.159440994262695 
2.3054471015930176 
0.019705476239323616 
8.503273010253906 
-7.63949728012085 
6.161408424377441 
-0.21946699917316437 
2.6941018104553223 
-3.0893077850341797 
-3.243593454360962 
14.57220458984375 
7.944648742675781 
1.7996888160705566 
-5.110448837280273 
11.375734329223633 
0.40764814615249634 
-9.296890258789062 
-0.7843377590179443 
1.410118818283081 
2.7792022228240967 
-0.6792899370193481 
0.7589048743247986 
0.3582000136375427 
8.529925346374512 
1.3039789199829102 
7.5502824783325195 
-2.41357159614563 
-6.100927829742432 
9.331101417541504 
0.9334392547607422 
2.0321667194366455 
10.477426528930664 
10.649186134338379 
8.873026847839355 
-2.5886502265930176 
1.8915379047393799 
-2.275216579437256 
-1.4600359201431274 
-2.18570613861084 
2.115590810775757 
0.9030045866966248 
6.570652961730957 
-3.246427297592163 
8.749402046203613 
0.9748417735099792 
-2.6295547485351562 
-2.8787310123443604 
8.486854553222656 
-0.9707000851631165 
1.5031044483184814 
-0.049656931310892105 
10.414916038513184 
0.41556283831596375 
13.77412223815918 
-1.9468284845352173 
2.0082015991210938 
-4.192869186401367 
1.2236371040344238 
7.112324237823486 
7.686573505401611 
7.83371639251709 
2.9556994438171387 
0.12459515780210495 
-8.010250091552734 
12.324413299560547 
-0.7329145073890686 
19.328210830688477 
2.335475444793701 
-4.844840049743652 
-9.363449096679688 
9.655677795410156 
4.6293439865112305 
-6.619668960571289 
7.512667655944824 
10.860215187072754 
2.0631072521209717 
0.34651702642440796 
0.5341479778289795 
-0.1098107323050499 
0.3227340281009674 
-2.8525161743164062 
-6.045652389526367 
0.530606746673584 
1.1303577423095703 
17.17403793334961 
-2.5901477336883545 
0.06220010668039322 
10.385838508605957 
-11.224099159240723 
-0.7722752094268799 
-2.1968307495117188 
10.153192520141602 
-1.0310823917388916 
0.7848857641220093 
10.832770347595215 
4.908483028411865 
-11.005388259887695 
-3.8834331035614014 
-9.910701751708984 
-5.335597038269043 
0.8412816524505615 
4.241510391235352 
5.272433280944824 
-0.2407628297805786 
2.456493377685547 
-6.235946178436279 
8.37740707397461 
-9.301201820373535 
9.248899459838867 
1.3785468339920044 
20.856388092041016 
-4.891654968261719 
3.3861136436462402 
-10.509819030761719 
-6.52008581161499 
10.08881664276123 
-16.728010177612305 
4.731304168701172 
-4.660869121551514 
6.368602275848389 
-1.6590607166290283 
3.46970272064209 
3.750211715698242 
-14.685197830200195 
-2.4988741874694824 
1.3354504108428955 
-0.2524479627609253 
4.596936225891113 
-8.965872764587402 
-2.2535431385040283 
-2.486229658126831 
5.235019683837891 
-3.914529323577881 
-0.4832407832145691 
7.618444919586182 
6.7245917320251465 
1.6214611530303955 
-2.856281280517578 
2.3173274993896484 
-6.746272087097168 
-3.1283669471740723 
17.812252044677734 
9.427197456359863 
-0.8341799974441528 
-5.9032769203186035 
12.573649406433105 
-2.933955430984497 
-6.576257228851318 
10.945865631103516 
-1.7302796840667725 
4.651112079620361 
5.357468605041504 
0.22414100170135498 
-5.761780261993408 
-3.7722055912017822 
9.514250755310059 
3.374650239944458 
-1.106833577156067 
-1.994025707244873 
-11.893798828125 
-23.50364112854004 
4.1958909034729 
-6.562991142272949 
6.316330432891846 
4.440861701965332 
-9.517887115478516 
0.7509821653366089 
-3.434882879257202 
-6.251135349273682 
0.9453647136688232 
1.4176605939865112 
-0.4745410084724426 
3.9884748458862305 
2.81177020072937 
-5.609870910644531 
-6.753360271453857 
-1.2388854026794434 
8.957776069641113 
2.0349652767181396 
-11.501293182373047 
-15.506458282470703 
-6.6193623542785645 
5.04136323928833 
5.408967018127441 
9.775188446044922 
9.211101531982422 
-5.396298885345459 
-12.961169242858887 
0.5323330163955688 
3.558265209197998 
8.156536102294922 
-6.48124361038208 
-2.3103749752044678 
14.89928913116455 
0.6648597121238708 
-3.9639132022857666 
9.67288589477539 
7.134517192840576 
3.4253156185150146 
1.8511693477630615 
9.820183753967285 
4.038685321807861 
14.260411262512207 
3.2890663146972656 
2.833036422729492 
5.721871852874756 
2.762025833129883 
-3.8311164379119873 
-2.0880486965179443 
-0.031871531158685684 
-2.006199836730957 
-10.215252876281738 
4.996253490447998 
8.19034481048584 
-0.7681265473365784 
-2.6383159160614014 
4.070706367492676 
-4.8580780029296875 
3.51706862449646 
-0.33050650358200073 
4.895274639129639 
-27.77993392944336 
-3.0489625930786133 
-5.238290786743164 
8.707429885864258 
-1.2284871339797974 
-22.23197364807129 
8.280877113342285 
-3.892763137817383 
-3.3857948780059814 
-1.2984459400177002 
-0.8894174098968506 
-0.5286680459976196 
3.3810975551605225 
7.134896278381348 
1.8539140224456787 
2.187011480331421 
0.0006769064348191023 
-11.088386535644531 
3.477735996246338 
3.355116605758667 
-14.4778413772583 
6.884681701660156 
6.224017143249512 
-9.61658000946045 
-6.068846225738525 
-4.435634613037109 
10.750459671020508 
-1.7400599718093872 
-5.5834221839904785 
16.27317237854004 
4.275877475738525 
-9.993441581726074 
0.1207754835486412 
5.834145545959473 
8.453081130981445 
9.311387062072754 
-11.192495346069336 
0.13044105470180511 
-6.7570929527282715 
2.891660690307617 
6.731450080871582 
-11.810519218444824 
-4.633129596710205 
-2.365661382675171 
-2.773906946182251 
-6.022476673126221 
5.567894458770752 
8.74190902709961 
-12.691291809082031 
3.7208495140075684 
-3.887970447540283 
8.933370590209961 
0.9987611174583435 
-1.259582757949829 
-7.626465797424316 
10.361442565917969 
-6.621569633483887 
-7.855143070220947 
4.9458112716674805 
-10.201404571533203 
-1.3406548500061035 
6.102541446685791 
2.474937677383423 
6.541975498199463 
-7.1193742752075195 
-14.31641674041748 
-2.5048089027404785 
-16.45370864868164 
-12.002554893493652 
1.8465086221694946 
-10.046791076660156 
-0.5175157785415649 
-7.925201892852783 
-21.834022521972656 
0.8206169605255127 
-0.13068631291389465 
-10.219924926757812 
1.3623977899551392 
-0.5870006680488586 
7.162869453430176 
5.026967525482178 
-7.120920658111572 
-9.700247764587402 
-4.313475608825684 
-7.444843292236328 
-1.3691033124923706 
1.843466877937317 
-1.1379225254058838 
13.322375297546387 
-8.983135223388672 
5.307373046875 
-3.4610095024108887 
-11.279362678527832 
-14.70028018951416 
-1.52815842628479 
-1.5498309135437012 
7.865637302398682 
14.238486289978027 
6.680233478546143 
6.024904727935791 
10.524154663085938 
-6.469447135925293 
-1.3833956718444824 
-5.569491863250732 
-15.303276062011719 
-6.870382308959961 
4.006568908691406 
-5.099142074584961 
20.717897415161133 
-2.448073148727417 
-1.2155739068984985 
2.8624227046966553 
-3.5358359813690186 
2.163708448410034 
-11.488730430603027 
5.023507595062256 
-8.32369327545166 
9.172637939453125 
-16.39417839050293 
4.578392028808594 
-2.8718338012695312 
-6.372607231140137 
-6.965844631195068 
5.346360683441162 
-7.648130416870117 
-7.67086935043335 
1.8467780351638794 
2.9442503452301025 
1.5808417797088623 
4.662452697753906 
-5.893517017364502 
0.3169020414352417 
-6.137491226196289 
-8.988930702209473 
12.167318344116211 
-0.7542346715927124 
-1.1842668056488037 
6.933696269989014 
-5.448152542114258 
7.739401817321777 
14.836701393127441 
0.9211631417274475 
7.098718166351318 
8.991358757019043 
-2.5709218978881836 
15.718938827514648 
-6.624730110168457 
12.334906578063965 
-8.05650520324707 
-4.417230129241943 
-1.3733701705932617 
2.4661591053009033 
-2.271224021911621 
5.2032694816589355 
12.593183517456055 
1.9701268672943115 
-2.9833879470825195 
14.882379531860352 
-8.427393913269043 
-5.672775745391846 
-5.186000823974609 
-9.04575252532959 
-2.7983620166778564 
-5.949624538421631 
1.1146758794784546 
-1.5930354595184326 
-3.4285802841186523 
1.6945884227752686 
22.013784408569336 
1.0759358406066895 
-14.034599304199219 
-3.9547789096832275 
-35.066951751708984 
9.954440116882324 
3.0404210090637207 
-5.20180082321167 
14.364834785461426 
5.606368064880371 
11.464144706726074 
-3.8444066047668457 
6.049723148345947 
-1.9596766233444214 
6.645840644836426 
-5.703904628753662 
-9.399256706237793 
-1.4720572233200073 
2.0968825817108154 
-2.688269853591919 
-8.614563941955566 
0.8644887804985046 
-0.2387102097272873 
9.204437255859375 
6.797973155975342 
1.5618958473205566 
-3.267967700958252 
-0.1420544981956482 
-4.386521339416504 
4.963006019592285 
-5.104245662689209 
11.141898155212402 
-22.772348403930664 
21.781967163085938 
8.448897361755371 
3.7178940773010254 
-22.487640380859375 
1.4686030149459839 
-12.587447166442871 
4.870665550231934 
-7.910540580749512 
-31.98624610900879 
12.6519775390625 
3.5823144912719727 
-5.768353462219238 
3.0816702842712402 
3.345334768295288 
10.472733497619629 
2.1016738414764404 
4.171973705291748 
-2.758906126022339 
-12.787879943847656 
0.48640909790992737 
3.041780948638916 
-6.208929538726807 
4.128420352935791 
10.74068546295166 
0.6430884599685669 
1.0750840902328491 
15.8660249710083 
-29.301305770874023 
-9.26839828491211 
2.2355053424835205 
4.725191116333008 
14.96369457244873 
-5.28396463394165 
-5.7910237312316895 
32.99954605102539 
20.049148559570312 
-18.108827590942383 
22.119043350219727 
-5.254754066467285 
-6.675509929656982 
-1.9794435501098633 
-1.9002363681793213 
-0.5558326840400696 
-1.0739973783493042 
18.5667667388916 
0.7346258163452148 
-1.5279645919799805 
-2.1687021255493164 
-7.008908748626709 
14.644827842712402 
-2.295132637023926 
16.914323806762695 
-0.47289931774139404 
-8.67315673828125 
-11.47401237487793 
-2.7229390144348145 
-33.12937927246094 
5.979526519775391 
14.449052810668945 
-20.900087356567383 
-4.14531135559082 
-12.587814331054688 
2.6823084354400635 
-3.866028308868408 
14.315053939819336 
-5.442401885986328 
3.3263885974884033 
0.4318373203277588 
3.9563710689544678 
-11.34558391571045 
4.429957866668701 
-6.295191287994385 
-5.439074993133545 
6.099155426025391 
-4.88529109954834 
-2.956113815307617 
-3.252701759338379 
-26.293169021606445 
11.41390323638916 
0.4580293893814087 
-0.5284650325775146 
-2.7895286083221436 
-6.378283500671387 
-3.0024216175079346 
-1.8014692068099976 
4.722491264343262 
6.453064441680908 
7.866440296173096 
4.174470901489258 
-1.729767084121704 
-0.6744774580001831 
10.151853561401367 
-9.035958290100098 
-9.24576187133789 
12.918582916259766 
-8.727021217346191 
-6.564483642578125 
0.5198123455047607 
-31.810047149658203 
5.470648288726807 
-4.87709903717041 
2.1183035373687744 
-9.855640411376953 
-6.564080238342285 
-4.566371917724609 
7.200117111206055 
-14.311463356018066 
13.21591567993164 
0.5625288486480713 
27.098888397216797 
-6.166048049926758 
0.0938759595155716 
0.9562927484512329 
-9.859691619873047 
2.3959755897521973 
-2.9485671520233154 
-1.053863286972046 
-1.2158551216125488 
-7.3634233474731445 
1.870195984840393 
12.0507230758667 
0.7324750423431396 
-13.85707950592041 
-9.251628875732422 
-0.5305461883544922 
13.168152809143066 
0.4102661907672882 
10.110142707824707 
-9.951342582702637 
-9.093093872070312 
-0.6221656203269958 
-3.451117515563965 
-5.635692596435547 
-1.7165478467941284 
-2.0031206607818604 
-9.830238342285156 
2.1027042865753174 
17.17780303955078 
-2.1194417476654053 
-7.719374656677246 
10.03123664855957 
-7.9650092124938965 
4.308269500732422 
-5.507525444030762 
2.5939877033233643 
-2.9404451847076416 
5.8036789894104 
11.248900413513184 
0.830004870891571 
-4.332018852233887 
-4.162875652313232 
-15.968670845031738 
-7.771816253662109 
4.523522853851318 
-11.134027481079102 
-12.590226173400879 
19.83904266357422 
9.837590217590332 
8.996350288391113 
-5.5355000495910645 
2.1002283096313477 
8.971609115600586 
-12.521702766418457 
-2.4008524417877197 
-2.1385762691497803 
-0.8654583692550659 
10.03193473815918 
16.8256778717041 
-29.69383430480957 
2.5807106494903564 
6.553472995758057 
-1.6672686338424683 
20.109107971191406 
-1.7578303813934326 
9.765351295471191 
-4.385313034057617 
-21.376964569091797 
-4.306060314178467 
1.605149745941162 
1.5061124563217163 
-6.974582195281982 
5.491147041320801 
-1.598873496055603 
13.685468673706055 
-12.468866348266602 
11.435970306396484 
-5.553523540496826 
-10.774983406066895 
-1.5936896800994873 
5.229319095611572 
-8.754568099975586 
0.5778898596763611 
4.505484104156494 
-0.1031242236495018 
1.696419596672058 
-2.020630359649658 
-0.42372652888298035 
-14.409957885742188 
7.1780219078063965 
2.5043489933013916 
7.20149040222168 
-33.836483001708984 
-9.292441368103027 
0.263790100812912 
-20.75859832763672 
0.7859093546867371 
-0.7574533224105835 
9.512989044189453 
-0.06264281272888184 
-11.039172172546387 
35.931697845458984 
-8.65429973602295 
4.496670246124268 
1.9025746583938599 
5.609170913696289 
-6.665318965911865 
7.7193284034729 
4.990297317504883 
-9.757396697998047 
3.765507459640503 
2.6485395431518555 
-1.3478928804397583 
8.032483100891113 
17.841367721557617 
-5.876275539398193 
4.684367656707764 
-13.857233047485352 
-0.28849849104881287 
2.7220046520233154 
1.9816757440567017 
0.7286272644996643 
-8.129568099975586 
7.355396747589111 
16.02528953552246 
-1.0657678842544556 
-4.599461078643799 
-1.283614993095398 
9.301900863647461 
1.8694288730621338 
0.4359889328479767 
4.767612934112549 
6.767984867095947 
-0.6508629322052002 
-9.250320434570312 
-1.9826058149337769 
-0.3317532539367676 
12.624382019042969 
4.10252571105957 
13.441662788391113 
7.2959771156311035 
15.616000175476074 
4.352029323577881 
-0.1801891326904297 
6.318809509277344 
25.4853572845459 
-23.416919708251953 
-18.514156341552734 
6.976380348205566 
-1.8409994840621948 
-16.031896591186523 
-3.508084297180176 
-16.03788185119629 
-0.7938581109046936 
-5.606613636016846 
10.402800559997559 
-10.3439359664917 
-3.7591099739074707 
-22.168718338012695 
-15.38309383392334 
-6.488359451293945 
0.6693204641342163 
0.2106824815273285 
5.187585353851318 
13.468873977661133 
0.13437655568122864 
-1.2041654586791992 
-6.362512588500977 
7.438231468200684 
-6.771748065948486 
33.704856872558594 
-12.84869384765625 
-7.598581314086914 
-9.638230323791504 
5.221307277679443 
9.199050903320312 
-5.488286018371582 
-3.6066625118255615 
11.33737564086914 
4.877676963806152 
7.968247890472412 
41.48313522338867 
0.9717589616775513 
14.787186622619629 
-19.90219497680664 
-24.742311477661133 
5.718812942504883 
-8.09676456451416 
7.884843826293945 
-0.8654158115386963 
-10.064992904663086 
1.1497973203659058 
-14.08630084991455 
-1.8201202154159546 
-5.422168731689453 
-1.764290452003479 
-0.2566681504249573 
2.2088749408721924 
-9.363804817199707 
12.526372909545898 
6.440423488616943 
-4.456263065338135 
-10.620559692382812 
-16.872303009033203 
6.964963912963867 
-4.577381134033203 
-4.584723949432373 
-6.911226272583008 
5.0985822677612305 
6.304544925689697 
11.82898235321045 
10.957910537719727 
6.555413246154785 
-5.4045634269714355 
-0.5131548047065735 
-12.392190933227539 
6.913240432739258 
35.20534133911133 
-5.502743244171143 
-28.878721237182617 
5.236455917358398 
-5.62138032913208 
-4.736904621124268 
-16.309476852416992 
-10.257246017456055 
-5.272876739501953 
-1.2090179920196533 
-6.2343034744262695 
-20.008182525634766 
2.1526479721069336 
-2.5150554180145264 
-0.9964765906333923 
6.182850360870361 
5.080482006072998 
-7.636676788330078 
-10.59805965423584 
4.430220127105713 
2.8992409706115723 
2.4998793601989746 
-3.081761121749878 
0.17244775593280792 
-3.7785418033599854 
-8.891740798950195 
52.505287170410156 
11.249154090881348 
19.807178497314453 
-5.571603775024414 
-13.445988655090332 
-2.770578622817993 
3.052025556564331 
-2.163339614868164 
7.18506383895874 
-3.4504621028900146 
2.4981210231781006 
0.7379449605941772 
3.0375726222991943 
3.848672866821289 
0.209950789809227 
-1.7156323194503784 
8.512514114379883 
-9.069093704223633 
-1.4040474891662598 
1.2369178533554077 
0.08905453979969025 
-12.07133960723877 
-22.479732513427734 
-5.933389663696289 
-9.446510314941406 
0.0022159330546855927 
1.3245638608932495 
12.079981803894043 
-14.801727294921875 
-24.56659698486328 
-4.164253234863281 
18.26856803894043 
-12.505520820617676 
-3.120309591293335 
-0.9219631552696228 
5.732654571533203 
5.215911865234375 
-0.41172656416893005 
-5.003507614135742 
-8.150829315185547 
-3.078989028930664 
16.215835571289062 
0.6884562373161316 
-4.458715915679932 
-3.3763160705566406 
-0.23400774598121643 
8.221717834472656 
-4.036994457244873 
-5.9379143714904785 
2.4262642860412598 
-6.851995944976807 
6.467501640319824 
4.114470481872559 
5.106388568878174 
-4.00914192199707 
-12.44145679473877 
0.49814555048942566 
5.510125637054443 
13.54896354675293 
-2.1169333457946777 
-2.615567684173584 
-27.728315353393555 
3.8301327228546143 
17.37202262878418 
17.995004653930664 
7.807553768157959 
-2.0360636711120605 
-12.084877967834473 
-2.322373390197754 
-4.483569145202637 
-0.8720914125442505 
-9.782289505004883 
-17.821626663208008 
0.6113079786300659 
-6.561648845672607 
-3.733668088912964 
2.8863329887390137 
-0.6819285750389099 
5.806309700012207 
-0.9359044432640076 
-13.706865310668945 
-2.075286865234375 
-3.813169240951538 
-2.110729694366455 
6.847143650054932 
-8.620439529418945 
0.25952109694480896 
-4.429759502410889 
3.3346188068389893 
-0.11328566819429398 
-0.4828541576862335 
8.216207504272461 
4.393728256225586 
5.263866424560547 
1.7637685537338257 
-5.191447734832764 
-0.7197777628898621 
-2.0760529041290283 
-1.5036134719848633 
1.5931159257888794 
-13.105778694152832 
-0.34589603543281555 
1.5985603332519531 
4.113986968994141 
-1.572770595550537 
14.61269760131836 
-4.949987411499023 
-6.021779537200928 
-1.7932754755020142 
6.10482931137085 
19.361541748046875 
-2.1509716510772705 
-2.1145691871643066 
-27.643016815185547 
14.476496696472168 
3.995492935180664 
13.666210174560547 
-2.861999273300171 
0.7895278930664062 
17.990779876708984 
-2.6996121406555176 
-8.045207023620605 
-7.860447406768799 
-8.763992309570312 
-4.021896839141846 
-2.642411470413208 
-2.607757329940796 
-1.958825707435608 
-7.219299793243408 
-3.533930778503418 
4.4350738525390625 
-2.2162623405456543 
-11.816847801208496 
-6.923105716705322 
-11.628291130065918 
-10.119688034057617 
-10.318156242370605 
8.393237113952637 
-0.17578938603401184 
4.664502143859863 
1.8392804861068726 
-19.556222915649414 
-6.054047584533691 
-3.0846495628356934 
-3.3775243759155273 
7.370916366577148 
-9.396066665649414 
13.311121940612793 
-11.857290267944336 
-5.478392601013184 
-0.18384552001953125 
1.0569336414337158 
3.9317803382873535 
-9.950838088989258 
1.6958563327789307 
-2.0379011631011963 
-2.7756290435791016 
-3.332364559173584 
5.143473148345947 
9.561197280883789 
-2.9337377548217773 
-6.480647087097168 
-4.719019412994385 
5.359982013702393 
-6.93742036819458 
-0.06428523361682892 
2.793761968612671 
-3.192753791809082 
-5.122530937194824 
-4.688459873199463 
-3.353318929672241 
6.462660789489746 
-7.702406406402588 
4.784463405609131 
-4.528175354003906 
4.995916843414307 
-0.43236052989959717 
-4.389172077178955 
15.88206672668457 
11.47805118560791 
-9.942304611206055 
7.360172748565674 
0.29571637511253357 
-0.1302783340215683 
-8.218186378479004 
-3.390056610107422 
3.389267921447754 
-16.66064453125 
1.707721471786499 
4.3653764724731445 
-3.0274980068206787 
3.711822509765625 
0.36623579263687134 
3.7805778980255127 
-6.488033771514893 
8.958470344543457 
11.896794319152832 
0.02967786230146885 
4.283203601837158 
-1.252175211906433 
-5.890273571014404 
1.2963745594024658 
8.232829093933105 
4.7027788162231445 
2.1610732078552246 
-0.6339059472084045 
-2.664668083190918 
-10.920458793640137 
3.227419853210449 
1.6519434452056885 
-0.20141665637493134 
-1.1794079542160034 
-2.798887252807617 
-2.1261191368103027 
-2.248736619949341 
12.968117713928223 
-9.282798767089844 
0.4294501543045044 
-4.762224197387695 
0.8524296879768372 
2.5992374420166016 
2.2772743701934814 
-2.0946168899536133 
12.526374816894531 
7.437441349029541 
-10.114412307739258 
-3.791949510574341 
7.5586442947387695 
-1.170304298400879 
6.911344051361084 
3.1352317333221436 
1.4781163930892944 
-8.049995422363281 
-7.639132499694824 
-10.54074478149414 
1.8362692594528198 
13.181805610656738 
2.816211223602295 
-13.63955020904541 
4.223729133605957 
0.8519144058227539 
4.883716583251953 
1.167405605316162 
2.0246050357818604 
4.451312065124512 
11.931273460388184 
4.186094284057617 
-4.709529876708984 
4.8804707527160645 
-1.144964337348938 
7.044966220855713 
3.2479166984558105 
8.265374183654785 
2.710336923599243 
-6.97509765625 
5.547852516174316 
7.3114237785339355 
16.395593643188477 
3.6799416542053223 
2.5008935928344727 
-0.25482597947120667 
5.393084526062012 
-17.933767318725586 
-8.862027168273926 
-6.22985315322876 
0.20461833477020264 
5.02277135848999 
3.444796323776245 
-3.4452550411224365 
-5.247175693511963 
12.455742835998535 
2.988787889480591 
11.895075798034668 
-4.914059162139893 
-0.6811904311180115 
-3.373509407043457 
-0.06137768551707268 
-6.316071033477783 
4.708151817321777 
6.614556312561035 
9.259557723999023 
-4.117015361785889 
4.130630970001221 
-0.9635820984840393 
-2.5485453605651855 
5.871722221374512 
-4.886110305786133 
0.7420994639396667 
-0.7181214690208435 
16.280275344848633 
2.5006015300750732 
2.817234754562378 
2.610313892364502 
4.418568134307861 
0.3282766342163086 
-14.368711471557617 
-9.883845329284668 
-3.6132771968841553 
2.5219457149505615 
3.2715542316436768 
2.4923033714294434 
4.70437479019165 
4.6518354415893555 
-7.625062465667725 
4.553267478942871 
-1.5995714664459229 
0.7979525327682495 
-19.78809356689453 
2.934478759765625 
-1.6235682964324951 
-0.12793657183647156 
0.27868780493736267 
-4.72709846496582 
15.937578201293945 
12.457625389099121 
4.0850958824157715 
-6.047672748565674 
3.9468798637390137 
-6.812347412109375 
-5.019573211669922 
3.35638689994812 
5.159101963043213 
4.7315592765808105 
1.5930665731430054 
-11.767424583435059 
-1.4663844108581543 
-1.4625943899154663 
-9.795991897583008 
1.4006096124649048 
3.070964813232422 
1.0594693422317505 
5.382399082183838 
-13.768445014953613 
7.313397407531738 
0.8022710680961609 
-5.592576026916504 
-7.248079776763916 
1.6801154613494873 
12.302668571472168 
9.521551132202148 
-5.27271032333374 
-8.534546852111816 
4.305167198181152 
-6.294747829437256 
-0.39131665229797363 
-1.0662026405334473 
16.97726821899414 
-2.5197560787200928 
-10.591984748840332 
-3.88381028175354 
-1.826958179473877 
0.9371761083602905 
4.367405414581299 
-1.7481898069381714 
1.745474100112915 
-0.2082449346780777 
-1.2446515560150146 
16.909664154052734 
1.4912186861038208 
9.60180950164795 
-1.3756060600280762 
-8.64714527130127 
3.1389734745025635 
-1.8482800722122192 
0.4212729036808014 
-12.154476165771484 
6.523614883422852 
3.016117572784424 
4.8838911056518555 
-4.5189642906188965 
1.0741952657699585 
6.156209468841553 
-2.506549119949341 
-1.3475770950317383 
-3.893367290496826 
1.1373388767242432 
3.4602854251861572 
-8.792342185974121 
8.18163013458252 
-2.3915059566497803 
-1.085066795349121 
-8.105123519897461 
5.349530220031738 
7.369510173797607 
-3.341794729232788 
-5.549086093902588 
-10.188835144042969 
1.623749017715454 
5.267211437225342 
-2.7197988033294678 
10.597339630126953 
-2.4057865142822266 
17.079212188720703 
7.8104705810546875 
-4.303706645965576 
5.8469061851501465 
-7.293100357055664 
-4.6857686042785645 
-5.396671295166016 
-3.316781997680664 
10.051765441894531 
-1.8944636583328247 
-6.909380912780762 
-7.219152927398682 
-9.033792495727539 
-1.5780013799667358 
1.5514706373214722 
-4.6720871925354 
-7.600477695465088 
-8.215056419372559 
-12.700722694396973 
-3.6701910495758057 
-3.440915822982788 
-0.2597673535346985 
6.713551044464111 
2.510314702987671 
0.004056284204125404 
-0.07679533958435059 
-10.39265251159668 
1.0530799627304077 
-8.796087265014648 
4.689136981964111 
-2.1303815841674805 
-2.4707705974578857 
-10.560187339782715 
-1.1457631587982178 
-1.0115389823913574 
3.5425562858581543 
-0.7128569483757019 
-2.7783753871917725 
-0.7736347913742065 
7.822434902191162 
4.266375541687012 
0.9257830381393433 
-13.412223815917969 
0.7167974710464478 
-8.672225952148438 
11.237902641296387 
4.428798675537109 
-2.61504864692688 
-4.128046035766602 
-5.19603967666626 
-3.592395544052124 
8.951812744140625 
4.458952903747559 
0.9346667528152466 
-9.851383209228516 
-0.09788438677787781 
-1.7491194009780884 
4.838893890380859 
1.4189656972885132 
-5.554283142089844 
-6.720213413238525 
4.4977240562438965 
-9.782676696777344 
-1.7540879249572754 
5.322153091430664 
-4.687804222106934 
8.554383277893066 
3.1945650577545166 
-8.2273530960083 
7.452849864959717 
6.317188739776611 
-6.680545806884766 
-2.64682936668396 
13.2444486618042 
-1.3721457719802856 
-11.263019561767578 
-3.7072629928588867 
2.470301628112793 
-6.216432094573975 
-17.23242950439453 
6.685154438018799 
-2.112410545349121 
-0.31628188490867615 
-2.476999044418335 
-5.510538578033447 
6.341447353363037 
-3.6757028102874756 
-7.925017833709717 
3.1331098079681396 
-9.000192642211914 
2.4958603382110596 
-0.03008057363331318 
3.499997615814209 
10.231531143188477 
-10.904150009155273 
-3.4390523433685303 
10.186285018920898 
4.706974983215332 
1.2703107595443726 
5.033275604248047 
1.3503155708312988 
-2.5423479080200195 
-7.356959819793701 
3.972733497619629 
1.6396028995513916 
9.386109352111816 
7.500011444091797 
-2.6672632694244385 
-3.5987768173217773 
1.7726733684539795 
14.165190696716309 
-2.4804770946502686 
20.682506561279297 
-3.0592267513275146 
7.236866474151611 
4.323612689971924 
-0.6793341040611267 
-2.1143136024475098 
17.746871948242188 
-10.071592330932617 
0.29608190059661865 
1.4263681173324585 
-9.673297882080078 
-4.148992538452148 
-0.9039351940155029 
-3.759343385696411 
-9.057476043701172 
-4.300048828125 
-3.478142261505127 
-3.037968873977661 
3.233675956726074 
0.35376572608947754 
4.303208351135254 
-1.4926278591156006 
9.220399856567383 
-2.735018730163574 
6.0655412673950195 
4.3574538230896 
-1.0326632261276245 
-0.1939285695552826 
-8.662585258483887 
-8.575397491455078 
-7.508139610290527 
2.9640424251556396 
-5.514015197753906 
-7.739312648773193 
-7.370559215545654 
6.138426303863525 
-9.644095420837402 
-8.951598167419434 
-1.076095700263977 
-7.794927597045898 
4.736413478851318 
2.160491466522217 
0.8499239683151245 
2.2584011554718018 
-1.7950489521026611 
10.683844566345215 
-2.1828932762145996 
-16.102706909179688 
-0.12145429849624634 
-3.4330427646636963 
-1.441758155822754 
-8.084760665893555 
-3.0715172290802 
-4.434794902801514 
0.46572020649909973 
-6.645791530609131 
-3.2997488975524902 
1.4980090856552124 
10.566657066345215 
-8.671695709228516 
-3.066868782043457 
-7.536208152770996 
-4.215150833129883 
-12.807699203491211 
17.548261642456055 
5.395848751068115 
-0.9935021996498108 
5.420777797698975 
-7.323691368103027 
-5.459454536437988 
2.5493221282958984 
-3.912461280822754 
4.6168532371521 
2.41144061088562 
4.711112022399902 
-5.3568315505981445 
-4.227476596832275 
5.266524314880371 
6.674186706542969 
1.879441261291504 
-2.1563236713409424 
-2.591627836227417 
3.288663387298584 
2.19909930229187 
6.469181537628174 
1.1783150434494019 
0.5987513661384583 
-0.9671463370323181 
6.651392459869385 
-1.6856225728988647 
3.4641671180725098 
10.388787269592285 
0.7472595572471619 
0.9630632400512695 
1.3859291076660156 
-0.28646066784858704 
-6.780011177062988 
1.3095513582229614 
0.6342273950576782 
2.106732130050659 
-3.204852819442749 
-0.8913568258285522 
-4.352291107177734 
-4.467413902282715 
9.410189628601074 
0.3066333830356598 
-5.843727111816406 
13.072959899902344 
2.585758924484253 
-6.596197605133057 
15.109721183776855 
-2.2458996772766113 
-2.3325066566467285 
13.848258018493652 
10.170395851135254 
1.180237889289856 
-7.876772880554199 
-5.2040815353393555 
-2.171082019805908 
-3.6123557090759277 
-2.7999026775360107 
25.324180603027344 
-4.986542224884033 
5.108649730682373 
-4.420146465301514 
-7.029375076293945 
-5.129108905792236 
-4.2403154373168945 
7.404945373535156 
-3.490797996520996 
-17.087039947509766 
-0.1835855394601822 
2.2113215923309326 
1.8297529220581055 
1.0859653949737549 
-1.219727873802185 
6.390926361083984 
-2.39129900932312 
-3.9192605018615723 
2.2591018676757812 
0.8063251972198486 
2.6449968814849854 
15.712136268615723 
2.4597585201263428 
2.0711886882781982 
6.292877197265625 
-4.882701396942139 
-3.184499502182007 
-0.7709205150604248 
-2.503537178039551 
3.33835506439209 
-0.9575475454330444 
-7.470417499542236 
-3.999246597290039 
0.47736620903015137 
5.66789436340332 
3.038090229034424 
-1.6180967092514038 
1.593286156654358 
4.723458290100098 
-1.238016128540039 
-11.07455825805664 
-0.8221747875213623 
8.334638595581055 
-3.485969066619873 
7.305413246154785 
1.3442884683609009 
8.66883659362793 
0.6436054706573486 
1.8186615705490112 
-2.950087070465088 
-3.7515065670013428 
0.44258156418800354 
-1.8167338371276855 
1.7075865268707275 
-0.48566097021102905 
-0.4140356779098511 
4.087831974029541 
2.2989397048950195 
-14.134325981140137 
8.333325386047363 
-0.7142403721809387 
-6.438783168792725 
-0.550559937953949 
-2.9277966022491455 
-1.7686231136322021 
-0.26613518595695496 
-5.310367584228516 
-1.064204216003418 
9.420077323913574 
0.5998345017433167 
-2.774184465408325 
2.6209683418273926 
-4.909617900848389 
-0.7286198735237122 
5.249855995178223 
-4.110865592956543 
-4.205472469329834 
4.172028541564941 
0.6638575792312622 
3.123782157897949 
-12.509614944458008 
3.650679349899292 
-1.3331454992294312 
-2.5319576263427734 
1.4377776384353638 
-3.2197091579437256 
-1.2407336235046387 
0.9757227301597595 
0.8002637028694153 
-2.516937017440796 
-14.109539985656738 
-4.1814141273498535 
0.6891104578971863 
-1.4799470901489258 
-5.729787349700928 
-1.1832544803619385 
3.002735137939453 
-0.3443659543991089 
-1.1572885513305664 
0.24333512783050537 
-7.101910591125488 
4.966828346252441 
-6.555004119873047 
-5.705022811889648 
-2.5989630222320557 
-0.17364569008350372 
-1.354827642440796 
-3.7861757278442383 
-2.4677393436431885 
-1.6437652111053467 
1.5174692869186401 
0.2878827154636383 
0.026221804320812225 
15.525507926940918 
9.708542823791504 
7.355289459228516 
4.5176262855529785 
7.121548175811768 
-2.914149522781372 
3.728320360183716 
1.6719768047332764 
-14.356928825378418 
-5.378669261932373 
7.144899845123291 
2.42624831199646 
7.130812168121338 
-5.375338554382324 
0.8917654752731323 
-4.040046215057373 
1.0705336332321167 
5.238500118255615 
1.7543994188308716 
-4.072094917297363 
-8.670709609985352 
1.8026925325393677 
-1.0462898015975952 
0.08635371923446655 
-16.268171310424805 
-0.7533309459686279 
-3.291806936264038 
-2.7654294967651367 
-2.7461304664611816 
-8.970152854919434 
10.149687767028809 
-2.451120138168335 
-0.5195038914680481 
-1.1775805950164795 
5.604414939880371 
2.432676315307617 
0.2498762011528015 
5.363262176513672 
3.4975602626800537 
3.2099099159240723 
-3.2810590267181396 
3.225645065307617 
5.040907382965088 
2.421074151992798 
-5.671356201171875 
3.073395252227783 
0.5697431564331055 
3.1425321102142334 
-5.187087535858154 
7.337455749511719 
-1.986486792564392 
-4.945976734161377 
-3.039201259613037 
5.721254825592041 
-13.694522857666016 
-1.9226645231246948 
-1.5129222869873047 
-0.7588685154914856 
4.0899529457092285 
-6.811641216278076 
-4.488595485687256 
-3.2667977809906006 
-4.817686557769775 
-7.126651287078857 
4.144628047943115 
2.626105785369873 
-4.756829261779785 
3.2255940437316895 
-1.9644477367401123 
2.5746726989746094 
-1.8886290788650513 
-7.186850070953369 
1.614112138748169 
-4.4866437911987305 
3.5951919555664062 
2.0197854042053223 
1.1568257808685303 
-3.1826953887939453 
2.7563207149505615 
0.1314098834991455 
-7.873125076293945 
-2.2180562019348145 
-2.6112656593322754 
-4.209985256195068 
2.0115854740142822 
2.0595648288726807 
1.3282477855682373 
-6.409853458404541 
-3.852940082550049 
-2.9329731464385986 
-6.548419952392578 
-1.1269580125808716 
-4.577566146850586 
-5.924062728881836 
2.372464895248413 
2.075605869293213 
-0.7265086770057678 
-2.805241107940674 
-1.9137911796569824 
-5.59805154800415 
-6.885666847229004 
1.9503568410873413 
3.4591217041015625 
1.5388596057891846 
4.674820423126221 
-8.770875930786133 
6.6772942543029785 
9.220968246459961 
-3.8699655532836914 
-2.7601089477539062 
0.3800863027572632 
-1.416383147239685 
7.986558437347412 
-4.699193954467773 
-1.5548043251037598 
8.24538803100586 
-4.292403697967529 
2.599368095397949 
1.8184949159622192 
-0.848980188369751 
5.253439426422119 
-5.511743545532227 
-0.9709638953208923 
-0.23188047111034393 
-7.448810577392578 
5.251671314239502 
1.4639275074005127 
-0.2878543734550476 
0.7711591124534607 
-1.1586576700210571 
-1.3873475790023804 
-3.7037689685821533 
-3.587890625 
-3.1600828170776367 
1.6354951858520508 
3.4543511867523193 
7.680363655090332 
-0.4728942811489105 
-7.915960788726807 
-3.546736240386963 
-0.4923228621482849 
-2.3853964805603027 
2.9889469146728516 
-2.1645898818969727 
-1.3342269659042358 
-2.3996944427490234 
5.043975830078125 
-1.6406358480453491 
2.4235706329345703 
1.0373258590698242 
2.5828144550323486 
1.9735978841781616 
-5.198458194732666 
-6.263179302215576 
2.9818294048309326 
4.3770952224731445 
3.790745735168457 
10.630274772644043 
-5.386388778686523 
-10.338269233703613 
3.0448243618011475 
3.599017858505249 
0.41886553168296814 
4.027522563934326 
4.455992221832275 
8.043243408203125 
-11.586414337158203 
0.9218101501464844 
3.3638596534729004 
7.817269325256348 
-9.24384593963623 
-3.5477421283721924 
-3.0079736709594727 
-2.9434967041015625 
16.946231842041016 
1.411823034286499 
-3.6590301990509033 
12.334403038024902 
2.7478020191192627 
-4.526230335235596 
-4.571400165557861 
-0.5403426289558411 
-0.18682238459587097 
-8.063264846801758 
7.054835796356201 
3.004000663757324 
0.29097113013267517 
-2.9484550952911377 
-5.637753963470459 
-12.489913940429688 
13.288731575012207 
9.118501663208008 
-4.487525939941406 
-6.7049055099487305 
-3.3803327083587646 
-3.1385257244110107 
-4.2433576583862305 
-4.241125106811523 
6.487851619720459 
6.873286247253418 
-0.9331594109535217 
-9.164609909057617 
-13.910239219665527 
-1.279531717300415 
12.941102981567383 
4.5777082443237305 
5.643698215484619 
5.9089765548706055 
-18.399293899536133 
-15.113848686218262 
3.341381549835205 
-0.29652783274650574 
-10.084495544433594 
0.3804533779621124 
3.580791473388672 
19.963672637939453 
1.2345657348632812 
7.957705020904541 
-0.7377660870552063 
11.52059268951416 
6.255687236785889 
2.264688491821289 
-6.5299224853515625 
7.550597667694092 
8.406233787536621 
-2.3800392150878906 
9.478279113769531 
4.412169456481934 
-7.7932939529418945 
-6.264227390289307 
-5.099216938018799 
7.538922309875488 
-3.539902925491333 
2.7656242847442627 
6.159632205963135 
-4.088298797607422 
-0.9335196018218994 
3.103708505630493 
1.86833655834198 
3.9507265090942383 
-0.5480160117149353 
-11.950407028198242 
-5.527128219604492 
2.0665059089660645 
-10.950515747070312 
20.87942886352539 
5.617424964904785 
5.223736763000488 
5.318497657775879 
-3.4700510501861572 
5.027349472045898 
-6.78523588180542 
-5.834438323974609 
12.044495582580566 
-2.9632925987243652 
16.40863800048828 
1.5482923984527588 
11.173033714294434 
0.24466100335121155 
1.0379406213760376 
1.4266736507415771 
-3.5890331268310547 
-6.096845626831055 
1.878639817237854 
-5.502064228057861 
1.3017282485961914 
-3.9422175884246826 
-2.2885501384735107 
-19.519556045532227 
-4.868894577026367 
-3.2575666904449463 
6.697863578796387 
4.087894916534424 
-2.58469557762146 
2.462293863296509 
0.9587088823318481 
6.949260711669922 
1.5062891244888306 
3.3585939407348633 
-7.374101638793945 
-0.0525856614112854 
-4.539851665496826 
6.849526882171631 
3.012882709503174 
-0.7943631410598755 
4.086391925811768 
-7.796896457672119 
-5.459173202514648 
-5.726724624633789 
-3.022970199584961 
9.888100624084473 
-4.79094123840332 
-6.023281097412109 
4.152888298034668 
-9.762319564819336 
-4.775032997131348 
-9.418718338012695 
12.037976264953613 
-10.202726364135742 
-1.4129252433776855 
-7.591642379760742 
-0.7545160055160522 
13.119647026062012 
-11.69245719909668 
9.489437103271484 
-1.2444489002227783 
-7.810471534729004 
4.600282669067383 
-0.4380095601081848 
2.3879237174987793 
-1.7452266216278076 
-7.840519905090332 
-10.215426445007324 
-2.414018154144287 
-3.199741840362549 
5.2663893699646 
2.20508074760437 
0.1279904842376709 
3.6234517097473145 
5.953970432281494 
1.372808814048767 
-9.182877540588379 
-7.489743232727051 
-11.503403663635254 
9.610353469848633 
-2.5427424907684326 
-9.850432395935059 
-5.4412360191345215 
4.560873031616211 
4.2001800537109375 
-0.33027440309524536 
-1.4745649099349976 
-4.246051788330078 
-7.310981750488281 
-6.603623867034912 
1.0208914279937744 
-2.8023979663848877 
-2.4018495082855225 
-13.564119338989258 
6.765243053436279 
-3.1385257244110107 
6.778851509094238 
5.066431522369385 
3.534557580947876 
3.969532012939453 
-0.48053526878356934 
14.726810455322266 
-1.805309772491455 
-13.890740394592285 
-3.549189329147339 
11.487783432006836 
-8.455022811889648 
-3.1733829975128174 
-22.939552307128906 
-2.0876340866088867 
4.553345680236816 
-6.413914680480957 
2.139660358428955 
-3.703195571899414 
-1.9223524332046509 
3.306467294692993 
16.06616973876953 
1.7398966550827026 
2.4845030307769775 
16.7249698638916 
-7.645946502685547 
5.303205490112305 
-6.287235260009766 
6.4867167472839355 
-3.506284236907959 
-3.995805263519287 
-2.828165292739868 
3.631154775619507 
-2.209317684173584 
-4.588454246520996 
1.3678178787231445 
5.860594749450684 
-7.591233253479004 
-2.9344065189361572 
10.490251541137695 
8.641358375549316 
7.602571487426758 
-4.057089805603027 
3.539597511291504 
-8.645261764526367 
-10.761056900024414 
-8.003257751464844 
-8.241825103759766 
-0.7837201952934265 
9.94735050201416 
1.744446039199829 
-0.2780880928039551 
-0.49306100606918335 
-4.8078932762146 
-6.221323013305664 
-4.844417572021484 
-2.622037410736084 
-3.3463497161865234 
4.036884307861328 
-3.0370240211486816 
8.130290985107422 
2.44869327545166 
-6.407716274261475 
7.857295989990234 
-3.655055522918701 
-1.9868242740631104 
-3.487732410430908 
-5.945720672607422 
5.849114894866943 
-4.828561305999756 
9.499384880065918 
-3.459230899810791 
16.79443359375 
-7.111658573150635 
-6.552573204040527 
-5.634529113769531 
-5.629494667053223 
-18.1529483795166 
-9.70781421661377 
5.493093013763428 
16.804969787597656 
-8.760201454162598 
14.802145004272461 
0.5354663133621216 
-1.8522380590438843 
-0.9256412386894226 
-3.110076904296875 
0.704668402671814 
-6.31882381439209 
-2.179933786392212 
2.1415185928344727 
6.285738468170166 
-8.263111114501953 
-10.133688926696777 
-0.39174115657806396 
-14.557567596435547 
0.733840823173523 
-14.317999839782715 
-8.503650665283203 
3.8260936737060547 
-8.182992935180664 
-0.8189875483512878 
3.4888930320739746 
19.801883697509766 
6.365292549133301 
-8.329676628112793 
9.69986629486084 
-6.948123931884766 
-9.275754928588867 
-9.617934226989746 
12.013737678527832 
-6.446624755859375 
-8.405818939208984 
3.172621011734009 
4.524035930633545 
27.0819034576416 
3.5000669956207275 
0.24657125771045685 
-12.679566383361816 
4.755503177642822 
6.08183479309082 
2.115900993347168 
2.95068359375 
6.1221537590026855 
-11.052000999450684 
-0.5173212885856628 
-6.194432258605957 
-9.575546264648438 
-5.195037364959717 
-1.5806291103363037 
-9.377701759338379 
-0.10790455341339111 
5.271994590759277 
16.930702209472656 
13.759239196777344 
13.900006294250488 
-0.6628159880638123 
9.040722846984863 
3.7362494468688965 
-3.387341260910034 
-11.166674613952637 
-0.6478591561317444 
-31.021499633789062 
4.024540901184082 
10.613371849060059 
-28.329652786254883 
-6.526487827301025 
5.518947601318359 
0.6732704639434814 
5.19525671005249 
2.068448066711426 
28.679567337036133 
3.4242873191833496 
-3.8832409381866455 
-14.349699974060059 
-7.65933084487915 
-7.879892349243164 
-7.017958641052246 
4.520405292510986 
10.618586540222168 
1.2873802185058594 
-0.7539188265800476 
15.713441848754883 
2.5346219539642334 
2.273798704147339 
-17.042539596557617 
6.564886093139648 
24.408546447753906 
7.584304332733154 
-2.0277884006500244 
-0.6408462524414062 
-4.223323822021484 
9.039102554321289 
2.083256244659424 
-2.4134063720703125 
1.0099061727523804 
-10.856307029724121 
-5.794273853302002 
24.468528747558594 
-6.022240161895752 
-2.3533377647399902 
3.461371421813965 
-7.586780071258545 
7.5369157791137695 
-5.772779941558838 
4.929291725158691 
-10.847166061401367 
-9.511801719665527 
15.27315616607666 
-2.825927972793579 
0.6921788454055786 
-5.372306823730469 
-4.606831073760986 
6.049611568450928 
1.7416590452194214 
5.645195484161377 
4.281213283538818 
2.6968472003936768 
0.2624521553516388 
0.8151536583900452 
6.139965057373047 
11.214227676391602 
4.438357353210449 
0.6527572870254517 
-3.5440855026245117 
0.1923467069864273 
4.0894575119018555 
-6.198219299316406 
-16.437536239624023 
6.378361701965332 
-2.839890241622925 
-6.9156999588012695 
21.863027572631836 
3.1727633476257324 
10.554312705993652 
-11.929163932800293 
-2.1908926963806152 
5.282057762145996 
-10.072230339050293 
-8.079828262329102 
1.2539254426956177 
-4.383125305175781 
4.602217197418213 
-12.215533256530762 
3.6577017307281494 
4.735986232757568 
-9.352355003356934 
4.442559242248535 
5.34128999710083 
11.575813293457031 
-10.083751678466797 
-1.6395001411437988 
-4.550052642822266 
-4.013763427734375 
1.0208537578582764 
-6.646341323852539 
1.2673640251159668 
12.081934928894043 
-0.6045374274253845 
-6.433900356292725 
-0.46196016669273376 
2.217085599899292 
10.933197021484375 
-3.598792791366577 
-4.085897922515869 
-1.5324543714523315 
3.4427690505981445 
4.777169227600098 
-3.286269426345825 
2.7625133991241455 
5.307375431060791 
-1.3134809732437134 
4.789034366607666 
0.7253392934799194 
-2.375262498855591 
-0.6647706031799316 
-9.990964889526367 
-1.311612844467163 
11.3124361038208 
8.130692481994629 
10.073382377624512 
2.3514459133148193 
-0.14320044219493866 
19.468233108520508 
8.96072006225586 
-9.38212776184082 
-0.9839493036270142 
2.999105215072632 
-3.947674512863159 
9.136116027832031 
-6.396984100341797 
-0.8759137988090515 
-8.912092208862305 
-4.015671253204346 
-5.621060848236084 
-8.063715934753418 
-0.7646660208702087 
5.245312690734863 
18.827722549438477 
-3.693415880203247 
-19.088376998901367 
2.47937273979187 
13.172097206115723 
-9.217865943908691 
2.6442644596099854 
0.34550711512565613 
-1.596291422843933 
7.360326766967773 
3.505671977996826 
-34.2368278503418 
2.784350633621216 
0.7038149833679199 
-12.072366714477539 
-4.093410015106201 
8.15001106262207 
-4.926785945892334 
2.7670016288757324 
8.897686004638672 
3.8183608055114746 
5.612797260284424 
5.258241653442383 
9.68954849243164 
2.4147086143493652 
-3.2621896266937256 
19.76801872253418 
4.429258346557617 
-1.2619338035583496 
-10.208813667297363 
2.1318273544311523 
2.7652764320373535 
-2.3400421142578125 
-0.07914891839027405 
-1.92538321018219 
1.953322172164917 
-7.785248279571533 
46.446258544921875 
-17.09295654296875 
6.660222053527832 
3.0597000122070312 
-3.5263211727142334 
-2.445674180984497 
-2.695540428161621 
-3.18245530128479 
4.260485649108887 
4.049575328826904 
-2.304124355316162 
-3.300448417663574 
21.467378616333008 
-3.6858530044555664 
-9.854366302490234 
1.580393671989441 
-6.700766086578369 
1.5142505168914795 
-3.2362680435180664 
4.122849464416504 
-8.068106651306152 
2.711256980895996 
-3.443783760070801 
1.4029868841171265 
-15.372126579284668 
-0.03698684275150299 
5.082981109619141 
-1.3737568855285645 
-0.7604320049285889 
-10.233290672302246 
-7.509092807769775 
7.994133949279785 
7.488909721374512 
1.6646323204040527 
-2.6676669120788574 
8.485709190368652 
4.264311790466309 
0.366888165473938 
2.136657476425171 
7.700900077819824 
-5.182950496673584 
-2.0219247341156006 
-7.090410232543945 
-0.29160091280937195 
-1.6036381721496582 
-3.5612049102783203 
-0.7606092691421509 
3.7279062271118164 
-3.185910940170288 
0.5700857639312744 
3.08540415763855 
-9.615594863891602 
-6.288593292236328 
-2.975792169570923 
8.68097972869873 
-2.6139562129974365 
-4.494344234466553 
8.334626197814941 
3.3217215538024902 
-2.3248603343963623 
-0.24267703294754028 
0.18504159152507782 
-0.9190204739570618 
1.4877490997314453 
0.23451995849609375 
-1.324051022529602 
-2.072788715362549 
-8.835220336914062 
-11.884369850158691 
1.542977213859558 
-3.8712074756622314 
-2.7922987937927246 
-1.1460685729980469 
0.6438032388687134 
-11.612968444824219 
-4.958998203277588 
-6.7845845222473145 
1.2763882875442505 
-3.1816203594207764 
-2.739661455154419 
4.24213171005249 
-4.072467803955078 
3.66051983833313 
-0.12668471038341522 
1.3848499059677124 
-3.4505410194396973 
-2.435558557510376 
-3.6453511714935303 
-0.7965048551559448 
5.864090919494629 
1.8339146375656128 
-1.7596380710601807 
-2.481736421585083 
4.450977802276611 
4.2107462882995605 
5.5232133865356445 
-3.118967294692993 
0.1655341237783432 
2.336731195449829 
-4.60115385055542 
0.3566644489765167 
5.433895111083984 
7.996144771575928 
-7.929450988769531 
1.0823545455932617 
-1.1268638372421265 
3.041614532470703 
4.548058032989502 
3.0814456939697266 
0.9366781115531921 
-4.74403190612793 
1.3545759916305542 
-2.8938002586364746 
-1.1505125761032104 
-6.688919544219971 
3.3952958583831787 
0.26174256205558777 
2.7455599308013916 
-2.2316508293151855 
-0.05592875927686691 
-3.487302303314209 
-14.23154067993164 
0.7641660571098328 
-3.1558408737182617 
-4.482238292694092 
3.6904757022857666 
-1.4844839572906494 
7.651337146759033 
-4.788336753845215 
6.5819597244262695 
2.5563461780548096 
-7.478667736053467 
-12.318918228149414 
-2.893803358078003 
-3.232121229171753 
-2.2282207012176514 
0.9044926166534424 
-1.0641018152236938 
-8.032007217407227 
-6.564112663269043 
2.5313429832458496 
-0.29765188694000244 
-14.99383544921875 
-5.58060359954834 
2.789698600769043 
-3.0492537021636963 
3.984449625015259 
0.5028326511383057 
3.8269503116607666 
7.669334888458252 
-2.0059382915496826 
7.7044525146484375 
-0.9676315188407898 
-2.058891773223877 
-0.060605525970458984 
-4.940226078033447 
-5.159834384918213 
1.3989070653915405 
3.8655383586883545 
5.307783126831055 
-1.3779473304748535 
-1.7595489025115967 
-0.8061303496360779 
-3.6489224433898926 
-8.163711547851562 
6.205166816711426 
0.6831704378128052 
-3.9920380115509033 
-4.835936069488525 
-8.308269500732422 
5.0562334060668945 
14.307820320129395 
1.324375033378601 
6.837615013122559 
-0.5778502225875854 
6.477322101593018 
13.927606582641602 
-3.124018907546997 
-7.051064491271973 
2.7372665405273438 
-3.3194570541381836 
-0.5070309638977051 
-3.1024532318115234 
-1.7345799207687378 
-6.952416896820068 
-6.211761951446533 
-3.8923451900482178 
2.188760995864868 
5.046172142028809 
3.00803542137146 
-5.6706695556640625 
2.622513771057129 
3.1644272804260254 
-1.4344104528427124 
-11.68369197845459 
-5.551527500152588 
-3.854041337966919 
-0.4585517942905426 
2.9420130252838135 
-0.19002026319503784 
0.2921142578125 
-4.444340229034424 
-7.95420503616333 
0.23711265623569489 
0.027321211993694305 
0.5263102650642395 
1.4484013319015503 
3.5833566188812256 
-2.4846279621124268 
-10.80388069152832 
1.6264456510543823 
-6.299681186676025 
9.704343795776367 
-16.47772979736328 
4.622918128967285 
0.135029599070549 
-6.933668613433838 
2.4694557189941406 
0.9605940580368042 
-5.959817409515381 
-1.0338908433914185 
3.8880527019500732 
-3.094829797744751 
3.1033732891082764 
0.5490024089813232 
-5.899646759033203 
-0.8175787925720215 
0.6004267334938049 
-3.4618523120880127 
11.364770889282227 
-0.8053600788116455 
-1.0777229070663452 
0.01203776802867651 
-11.820550918579102 
2.0943329334259033 
3.57090163230896 
-2.5683531761169434 
-1.8853240013122559 
6.929585933685303 
-4.7868547439575195 
1.887296199798584 
-3.3310303688049316 
8.342785835266113 
9.004047393798828 
-2.7577779293060303 
-3.837283134460449 
-1.552918791770935 
-2.7247278690338135 
-5.318517208099365 
0.5114308595657349 
8.517110824584961 
-5.561899185180664 
3.732220411300659 
-2.50543212890625 
-2.118320941925049 
-1.6936689615249634 
-6.897953987121582 
-2.603738307952881 
4.908619403839111 
-0.18387871980667114 
-3.311077833175659 
2.1585540771484375 
2.434084177017212 
5.76664924621582 
-4.610782146453857 
7.0476274490356445 
-1.0385833978652954 
11.402691841125488 
4.05473518371582 
-4.219331741333008 
-12.813807487487793 
-2.312804937362671 
-8.342952728271484 
11.186993598937988 
-14.086650848388672 
1.1517997980117798 
-4.421860218048096 
-5.448812007904053 
6.642416477203369 
0.49454066157341003 
3.940427780151367 
-0.31449463963508606 
-16.170072555541992 
-1.2417800426483154 
-19.07290267944336 
4.532671928405762 
4.717512130737305 
0.9349314570426941 
11.880902290344238 
-5.443395137786865 
-0.12308832257986069 
4.7460713386535645 
3.562955617904663 
-7.001668930053711 
-1.438786506652832 
-2.491306781768799 
-0.7453347444534302 
-1.8923894166946411 
-2.58892822265625 
-2.4460666179656982 
5.6680426597595215 
12.141775131225586 
-15.464877128601074 
14.755176544189453 
2.7633419036865234 
-11.797719955444336 
-2.5508153438568115 
-5.656582832336426 
1.4772406816482544 
5.172158241271973 
5.103784084320068 
4.328807353973389 
-16.549528121948242 
-7.7769012451171875 
10.57931900024414 
3.246218681335449 
1.3631525039672852 
2.8334298133850098 
-4.0907063484191895 
-7.14557409286499 
0.05269338935613632 
0.1433279812335968 
-1.6901023387908936 
3.355567455291748 
-5.208595275878906 
-11.399264335632324 
12.311365127563477 
1.0636956691741943 
-0.4216627776622772 
-0.5683390498161316 
7.680355072021484 
-7.300055027008057 
-4.298405647277832 
-8.829191207885742 
-0.7227730751037598 
3.886319637298584 
-13.888178825378418 
-5.946952819824219 
-5.532670974731445 
-1.9878969192504883 
19.37053871154785 
30.514280319213867 
11.070107460021973 
0.504950761795044 
0.254729300737381 
-1.2126765251159668 
2.557997465133667 
-6.2523627281188965 
8.326448440551758 
6.94074821472168 
24.476367950439453 
-7.244616985321045 
9.782684326171875 
-3.036547899246216 
4.26913595199585 
4.02449369430542 
-6.640735626220703 
3.755694627761841 
-17.832477569580078 
3.7336742877960205 
-6.31194543838501 
6.835337162017822 
-7.727787971496582 
-7.902468204498291 
4.674788475036621 
-1.4132697582244873 
-0.9144551157951355 
-5.006196022033691 
7.269046306610107 
-6.6266632080078125 
-12.24066162109375 
-2.3253140449523926 
-14.021289825439453 
-30.92998504638672 
-1.33871328830719 
15.33432388305664 
-2.1690690517425537 
-1.7548714876174927 
3.843806028366089 
9.194901466369629 
25.74321937561035 
1.8595670461654663 
5.123438358306885 
-2.2149338722229004 
-0.05301065370440483 
-9.028754234313965 
1.809088945388794 
0.8559655547142029 
-3.087801456451416 
-4.062180519104004 
-4.5296525955200195 
4.471034526824951 
11.517187118530273 
-8.675336837768555 
8.877019882202148 
-3.0173473358154297 
-1.290199875831604 
-1.547633409500122 
0.9345202445983887 
-0.8574622869491577 
0.42143580317497253 
-20.315975189208984 
-10.34032154083252 
5.002842426300049 
-5.940815448760986 
-17.201229095458984 
3.8751866817474365 
7.8479390144348145 
-1.2506343126296997 
12.018294334411621 
-6.855546951293945 
-10.381807327270508 
-13.192082405090332 
1.5574438571929932 
8.276780128479004 
-3.5677490234375 
-7.333081245422363 
-1.313148856163025 
-0.24832357466220856 
8.483260154724121 
2.531261444091797 
-4.596230506896973 
3.277132272720337 
-1.455676794052124 
-1.5839272737503052 
9.478175163269043 
-17.446611404418945 
-9.330381393432617 
21.659700393676758 
0.7438057065010071 
3.9207603931427 
-2.6141953468322754 
8.402688980102539 
-1.9760159254074097 
5.391831398010254 
-7.102066516876221 
-3.782991886138916 
12.869163513183594 
-1.1950194835662842 
-5.439608097076416 
-3.819132089614868 
10.937115669250488 
3.625725507736206 
-10.366754531860352 
-1.036132574081421 
-2.709571361541748 
10.26705265045166 
0.722637414932251 
0.6818050146102905 
-1.9551303386688232 
3.5207438468933105 
-6.722363471984863 
5.828683376312256 
2.896543264389038 
-8.15396499633789 
6.847592353820801 
-9.025467872619629 
-0.6866851449012756 
8.613838195800781 
-1.2489999532699585 
22.991390228271484 
9.051162719726562 
-4.7813873291015625 
-20.793027877807617 
-8.784407615661621 
-4.316307544708252 
-4.501084804534912 
4.531713485717773 
1.4418203830718994 
-5.931596755981445 
0.8460307121276855 
-3.6881532669067383 
-1.643201470375061 
0.03315187245607376 
-1.7425726652145386 
-6.022154331207275 
4.722310543060303 
1.8899781703948975 
3.866687774658203 
6.201475143432617 
6.841476917266846 
4.062266826629639 
-11.556049346923828 
-1.0133262872695923 
1.3846451044082642 
7.136147975921631 
7.80719518661499 
-14.667451858520508 
-4.891500949859619 
-5.2249064445495605 
9.310349464416504 
-13.979236602783203 
-6.071861743927002 
-5.939000129699707 
-3.278934955596924 
4.1037750244140625 
-1.3661768436431885 
6.722445011138916 
8.388524055480957 
3.03283953666687 
-6.039899826049805 
5.281301975250244 
-9.63165283203125 
-4.848533630371094 
-13.374229431152344 
27.59746742248535 
10.428296089172363 
9.896256446838379 
3.931283950805664 
-2.5492818355560303 
-14.016712188720703 
-12.258597373962402 
-6.587170124053955 
12.5184965133667 
-14.184401512145996 
-0.5197412371635437 
-1.822344183921814 
4.703491687774658 
7.603217601776123 
6.134486198425293 
-7.499727725982666 
-4.07541561126709 
-5.093135356903076 
5.302239894866943 
6.284023284912109 
-8.740205764770508 
15.902100563049316 
-8.37104606628418 
-2.403810977935791 
-2.647535800933838 
-20.486059188842773 
9.533498764038086 
-4.96307373046875 
-10.113965034484863 
2.5945892333984375 
7.11629581451416 
17.037004470825195 
-1.81210458278656 
-1.5310992002487183 
0.09217086434364319 
-6.576373100280762 
-7.665032863616943 
-13.473979949951172 
9.999977111816406 
3.7379631996154785 
7.143481254577637 
-1.8517299890518188 
-8.499021530151367 
-3.825833797454834 
-6.902917385101318 
6.334949016571045 
4.536344528198242 
-7.280353546142578 
14.98245906829834 
-1.2992690801620483 
-12.785653114318848 
2.759443998336792 
-2.0851786136627197 
-5.775209903717041 
10.748973846435547 
-1.2930532693862915 
-12.662951469421387 
-10.324175834655762 
-7.565497875213623 
5.1218647956848145 
-7.0208282470703125 
-19.496400833129883 
14.343371391296387 
6.193473815917969 
-7.581018924713135 
2.8419079780578613 
-16.868818283081055 
-1.3415679931640625 
6.219300746917725 
5.729653358459473 
-8.813764572143555 
5.469861030578613 
-1.6389389038085938 
17.62641716003418 
12.126138687133789 
-5.890847206115723 
-7.312817096710205 
0.620329737663269 
-7.417525291442871 
7.113580703735352 
7.5975847244262695 
4.991016864776611 
-2.9638304710388184 
-3.7883799076080322 
-2.7584598064422607 
21.698259353637695 
-1.099049687385559 
5.779873847961426 
-1.6668168306350708 
-1.610621690750122 
6.14539909362793 
-0.17732439935207367 
-12.201056480407715 
1.251281976699829 
-5.400640487670898 
12.916808128356934 
8.661279678344727 
2.276923894882202 
20.47230339050293 
4.959981441497803 
-7.6905317306518555 
7.256731986999512 
4.545189380645752 
-3.5696136951446533 
8.971053123474121 
-10.65538501739502 
2.315859794616699 
-7.544409275054932 
-2.2401986122131348 
-7.329495906829834 
-1.7755283117294312 
-4.342349529266357 
-6.9369964599609375 
-5.475679397583008 
0.33841976523399353 
4.370921611785889 
11.125711441040039 
5.347233295440674 
12.410652160644531 
2.521218776702881 
3.3614628314971924 
-4.126805305480957 
-3.5952062606811523 
-4.648166656494141 
5.122957706451416 
-2.6246442794799805 
-17.04296875 
9.576127052307129 
0.20908677577972412 
-17.688875198364258 
-13.129158973693848 
3.4141457080841064 
-2.1396868228912354 
-14.141478538513184 
2.9864320755004883 
-7.287840843200684 
12.471081733703613 
-6.74022912979126 
5.566068649291992 
-6.292403221130371 
-2.568087100982666 
-1.6352237462997437 
7.774189472198486 
-5.090530872344971 
-0.8771933913230896 
-0.24658629298210144 
0.32507655024528503 
0.8641178607940674 
12.59329891204834 
13.804945945739746 
3.6095457077026367 
12.308812141418457 
5.044073104858398 
12.382574081420898 
-1.7684940099716187 
1.343729019165039 
-11.157424926757812 
3.683633327484131 
1.333533763885498 
-8.883471488952637 
1.210624098777771 
10.405632972717285 
-8.468973159790039 
-4.8965559005737305 
13.362452507019043 
0.41830912232398987 
10.33905029296875 
3.3649990558624268 
2.042860984802246 
-5.0731892585754395 
0.9053381085395813 
-16.45069122314453 
1.451784372329712 
-1.2447489500045776 
6.1434831619262695 
-2.5867598056793213 
-12.856975555419922 
-20.042430877685547 
-10.780882835388184 
5.077082633972168 
-1.5418683290481567 
-18.945110321044922 
-6.758002281188965 
2.727088689804077 
2.782106637954712 
6.767946720123291 
-5.5276336669921875 
1.1679996252059937 
3.6022262573242188 
-0.8426259160041809 
-1.5815544128417969 
21.45132827758789 
3.3223612308502197 
-2.6675305366516113 
-6.735199928283691 
0.3555886447429657 
-16.789430618286133 
8.141741752624512 
-5.977603435516357 
-6.7322611808776855 
7.050368785858154 
-7.545204162597656 
-11.012181282043457 
4.283599376678467 
-13.87670612335205 
-0.9655580520629883 
0.8300501704216003 
7.688766956329346 
12.705825805664062 
5.976269245147705 
-13.661877632141113 
11.878360748291016 
11.639304161071777 
-4.174699306488037 
2.349468469619751 
4.434147357940674 
0.36551767587661743 
3.6748452186584473 
-8.514001846313477 
-5.383764743804932 
1.471069097518921 
3.067819595336914 
-16.59500503540039 
-15.242915153503418 
-4.826919078826904 
6.9594197273254395 
6.034553050994873 
-1.4410698413848877 
-1.1894114017486572 
13.897459030151367 
-26.446178436279297 
0.10628989338874817 
-0.990406334400177 
0.3522358238697052 
-0.07527374476194382 
6.049862384796143 
-5.074298858642578 
4.957836627960205 
-4.254691123962402 
1.1064393520355225 
3.9014670848846436 
0.41130754351615906 
-14.766441345214844 
-6.550873279571533 
-0.7006763815879822 
0.26354172825813293 
4.495059967041016 
8.653407096862793 
-4.844880104064941 
2.4899091720581055 
8.49588394165039 
-7.559849262237549 
1.2255209684371948 
-0.22785569727420807 
6.861537456512451 
10.200632095336914 
-4.75781774520874 
-16.40822982788086 
-18.644901275634766 
5.168320655822754 
-21.218833923339844 
-3.8128974437713623 
0.6078943014144897 
-5.284791469573975 
9.510440826416016 
16.58913803100586 
-0.02505314163863659 
-0.9099263548851013 
12.04312801361084 
-2.082897901535034 
1.6391491889953613 
-2.950713634490967 
1.9432529211044312 
-9.195991516113281 
-9.305032730102539 
0.1006425991654396 
-7.1873369216918945 
-14.037026405334473 
-3.243335723876953 
9.454345703125 
8.210535049438477 
-16.548316955566406 
-0.3953799605369568 
7.799673557281494 
11.750080108642578 
1.175321102142334 
2.380430221557617 
6.8047709465026855 
-3.436976432800293 
-1.2116725444793701 
9.285244941711426 
3.5857489109039307 
-3.0931053161621094 
-5.8798699378967285 
7.238094806671143 
-0.7182831168174744 
-1.3873934745788574 
-12.404722213745117 
2.9085843563079834 
7.697150707244873 
4.909266948699951 
0.871821939945221 
-3.7529125213623047 
-0.9524761438369751 
-8.563488960266113 
-6.495367050170898 
0.020847786217927933 
-9.731096267700195 
2.522592306137085 
-2.228442907333374 
1.6348170042037964 
7.980502128601074 
-4.3676581382751465 
8.903558731079102 
-4.583590984344482 
1.2241318225860596 
-0.05256896838545799 
13.284407615661621 
-8.691276550292969 
-0.8817214369773865 
-10.666736602783203 
-7.845930576324463 
-11.919609069824219 
10.426856994628906 
9.465478897094727 
0.6202069520950317 
7.044005393981934 
-1.1977933645248413 
-10.809624671936035 
-4.164335250854492 
2.916160821914673 
5.583596706390381 
-8.157937049865723 
15.595974922180176 
8.34196949005127 
-4.324936866760254 
2.613679885864258 
-9.770870208740234 
1.6535881757736206 
-2.821607828140259 
-6.161629676818848 
13.645389556884766 
4.257543563842773 
-1.5546197891235352 
-32.864444732666016 
11.498458862304688 
3.2294623851776123 
-2.804636001586914 
5.6609883308410645 
5.062607288360596 
3.1823854446411133 
-5.884951114654541 
-10.65331745147705 
16.550565719604492 
2.8381481170654297 
-7.905099391937256 
-14.131891250610352 
6.495121955871582 
-6.155428886413574 
12.79630184173584 
-2.8779313564300537 
5.740639686584473 
-11.803422927856445 
-2.1903889179229736 
4.433104038238525 
-2.0944674015045166 
47.56178283691406 
7.7979254722595215 
-3.3989768028259277 
8.97341251373291 
7.627638816833496 
-11.93349552154541 
10.858434677124023 
-3.9263529777526855 
-1.7660022974014282 
0.9018293619155884 
-0.6803518533706665 
7.553516864776611 
-0.17955903708934784 
29.90350914001465 
-5.209880352020264 
3.612124443054199 
7.814773082733154 
1.0946900844573975 
-0.13523969054222107 
4.867243766784668 
-18.204120635986328 
-19.453380584716797 
3.4862139225006104 
0.3390495479106903 
-2.0969433784484863 
0.68785560131073 
12.116058349609375 
2.7109057903289795 
-4.332785606384277 
4.147454261779785 
0.5262714624404907 
7.989444732666016 
-4.231670379638672 
-8.442166328430176 
-4.590071678161621 
-1.9139283895492554 
5.213129997253418 
-6.706230640411377 
11.041488647460938 
1.5199307203292847 
-13.84439468383789 
0.20587219297885895 
-17.336994171142578 
0.2706778347492218 
-2.5807313919067383 
-4.954202651977539 
12.650275230407715 
3.9506754875183105 
7.784560680389404 
5.04347038269043 
-15.570436477661133 
3.9785656929016113 
-0.8533150553703308 
5.598033905029297 
-5.172800064086914 
5.066774368286133 
-2.5639922618865967 
4.438662052154541 
24.17707633972168 
-1.9589085578918457 
-0.3445911407470703 
-7.69509220123291 
3.466381788253784 
-0.16577015817165375 
4.151116847991943 
1.2868752479553223 
5.728257179260254 
12.165472984313965 
-3.7846670150756836 
-23.580684661865234 
0.15879495441913605 
-0.14025753736495972 
-6.3308868408203125 
-11.883695602416992 
-0.8871447443962097 
0.6168578863143921 
-3.1043338775634766 
6.877546787261963 
0.031115764752030373 
-6.605963230133057 
3.0990970134735107 
34.581146240234375 
1.0204106569290161 
-5.153506755828857 
15.255213737487793 
-5.313816547393799 
15.279491424560547 
-3.2909932136535645 
0.7367640733718872 
-1.6799241304397583 
10.850985527038574 
11.667091369628906 
8.669650077819824 
3.568387031555176 
2.9691197872161865 
1.04160737991333 
0.470479279756546 
8.547483444213867 
-5.605709552764893 
-0.7398822903633118 
14.970017433166504 
-8.827658653259277 
-5.183814525604248 
14.279170989990234 
-5.255511283874512 
-4.439713001251221 
-15.471442222595215 
2.4217309951782227 
-4.576545238494873 
5.793238639831543 
-1.2290995121002197 
8.723627090454102 
-1.992872953414917 
-2.115273952484131 
5.141603946685791 
0.26588714122772217 
-6.757702350616455 
5.206496238708496 
18.618892669677734 
9.94047737121582 
-10.84705638885498 
1.692879319190979 
-23.790742874145508 
-1.7768114805221558 
4.15704870223999 
-4.272282600402832 
-4.648835182189941 
-20.48247528076172 
3.571768283843994 
12.68904972076416 
4.638907432556152 
-2.2559356689453125 
2.689242124557495 
1.6560789346694946 
-3.3540029525756836 
-3.0515830516815186 
7.891103744506836 
22.00380516052246 
3.905488967895508 
7.699970722198486 
-4.766228199005127 
5.322990417480469 
-1.3343021869659424 
-3.2813167572021484 
0.5530582666397095 
-28.87625503540039 
8.290575981140137 
-2.709477186203003 
18.75766372680664 
-6.757517337799072 
-27.720624923706055 
7.717306613922119 
1.5637792348861694 
13.989313125610352 
5.497032165527344 
-6.331148147583008 
-6.230844497680664 
1.815156102180481 
-6.884191513061523 
3.1673829555511475 
-1.5301861763000488 
-4.141260623931885 
-1.3742159605026245 
6.354013442993164 
-12.23723316192627 
-5.495795726776123 
-6.345808029174805 
6.395317554473877 
4.2578301429748535 
-7.038023948669434 
-13.25233268737793 
6.698616981506348 
8.573260307312012 
0.6003748178482056 
11.454373359680176 
-8.512104988098145 
-4.563360214233398 
22.929323196411133 
1.967952013015747 
-6.9253435134887695 
1.9879213571548462 
3.052400827407837 
-0.5151970982551575 
-0.5141565799713135 
-0.4032106101512909 
-5.427914142608643 
1.5102574825286865 
-7.843384742736816 
1.8592385053634644 
-4.9079203605651855 
0.04646500200033188 
7.3362908363342285 
-2.3250484466552734 
-5.178551197052002 
-3.942770004272461 
5.995635032653809 
-1.2353681325912476 
-3.337160587310791 
-3.6317458152770996 
-16.65252113342285 
5.225296974182129 
1.8149802684783936 
-3.1728768348693848 
5.316015243530273 
-7.420748233795166 
-2.687091827392578 
6.130714416503906 
-1.0142738819122314 
-11.770907402038574 
13.923798561096191 
-4.240376949310303 
-22.877927780151367 
-7.276340961456299 
-4.392389297485352 
3.2549009323120117 
-3.46686053276062 
-1.5232527256011963 
-2.5416512489318848 
-21.232725143432617 
-8.117899894714355 
-7.966331481933594 
12.547045707702637 
2.4708974361419678 
-1.2461055517196655 
-14.076375961303711 
-21.392465591430664 
-13.742308616638184 
20.85348892211914 
-4.975953102111816 
8.630599975585938 
1.9570523500442505 
-0.9218119978904724 
-1.0851322412490845 
-6.793702125549316 
-18.276954650878906 
-7.52449893951416 
-0.5161928534507751 
2.524352550506592 
-3.5916643142700195 
6.062199115753174 
-5.5549821853637695 
-4.608872413635254 
-9.71877384185791 
3.1257870197296143 
-9.05510139465332 
-6.134653568267822 
-22.192121505737305 
-3.1943249702453613 
7.26458740234375 
8.39546012878418 
4.691882610321045 
1.2154823541641235 
1.1072343587875366 
4.262627601623535 
-7.827581405639648 
-30.50967788696289 
21.95440101623535 
1.976709246635437 
5.493528842926025 
1.6632733345031738 
2.9389352798461914 
-10.233603477478027 
7.591644287109375 
-8.721078872680664 
-0.44753098487854004 
4.064208507537842 
-2.846038341522217 
16.520402908325195 
-7.231257438659668 
9.488161087036133 
-16.174346923828125 
-0.5536912083625793 
-5.598255634307861 
-4.338212966918945 
-3.1666948795318604 
-5.964290618896484 
-5.154748916625977 
-4.651848316192627 
1.64092218875885 
-3.39294171333313 
-2.708129644393921 
-1.0677664279937744 
-12.166960716247559 
-4.945687294006348 
7.402407169342041 
-10.030618667602539 
-17.808303833007812 
10.353167533874512 
0.6892270445823669 
6.264136791229248 
0.11837833374738693 
-0.2557256817817688 
12.579142570495605 
-6.3382182121276855 
-1.5158005952835083 
-21.287490844726562 
-10.252883911132812 
-7.392587184906006 
-9.54930591583252 
-5.031734943389893 
1.24214768409729 
-2.778184652328491 
-20.037677764892578 
-2.8150341510772705 
-1.794654130935669 
8.953804016113281 
-15.836641311645508 
-2.178802013397217 
11.065214157104492 
21.975360870361328 
2.322841167449951 
-5.502544403076172 
-5.1846513748168945 
10.093835830688477 
4.787511825561523 
-3.2617576122283936 
-8.772404670715332 
10.535141944885254 
-13.25889778137207 
4.7986578941345215 
-11.153529167175293 
-6.351059436798096 
-10.965370178222656 
12.317365646362305 
-7.934685230255127 
7.240396022796631 
4.72941780090332 
1.0645384788513184 
-1.8069392442703247 
5.526234149932861 
3.872408390045166 
-0.671604335308075 
4.172813415527344 
6.278177738189697 
-1.860715627670288 
-6.919768810272217 
8.768991470336914 
6.489731788635254 
-4.957317352294922 
-2.3663532733917236 
5.509265422821045 
-5.616572856903076 
0.0998082309961319 
-5.669826507568359 
-10.362579345703125 
2.821927785873413 
-1.8565795421600342 
5.773123741149902 
-6.940499305725098 
0.2672564387321472 
4.122087001800537 
5.614635944366455 
-3.600193500518799 
-4.162082672119141 
-7.4805684089660645 
-10.427515983581543 
3.7959187030792236 
10.259879112243652 
7.473635196685791 
35.180809020996094 
-14.64476490020752 
-3.1666440963745117 
10.422530174255371 
-24.806488037109375 
5.325128078460693 
-3.769723415374756 
-5.576062202453613 
9.183625221252441 
-33.497920989990234 
-3.6831748485565186 
5.28010368347168 
8.822453498840332 
11.264168739318848 
5.505487442016602 
9.825031280517578 
-3.756956100463867 
3.0546011924743652 
2.0171356201171875 
15.590607643127441 
4.089820861816406 
-3.205366849899292 
3.389418840408325 
-0.4237719476222992 
8.030569076538086 
-4.61836576461792 
8.691147804260254 
8.319912910461426 
25.053150177001953 
-6.511360168457031 
-7.7205610275268555 
-2.646650791168213 
3.189673900604248 
1.1637848615646362 
3.1823883056640625 
-7.974946022033691 
-9.054195404052734 
-20.582412719726562 
8.885252952575684 
8.200359344482422 
8.251479148864746 
-1.6063846349716187 
-3.978776693344116 
13.363421440124512 
7.159224987030029 
11.66402530670166 
-32.1866455078125 
-9.736512184143066 
-1.0798062086105347 
-2.2194600105285645 
-21.343358993530273 
8.907205581665039 
1.1750730276107788 
1.9559513330459595 
8.892294883728027 
6.344647407531738 
7.554487705230713 
8.22467041015625 
1.1774420738220215 
-9.549775123596191 
10.071802139282227 
-0.7323850393295288 
3.312413215637207 
-7.353396415710449 
16.811981201171875 
-13.685914039611816 
-2.463324546813965 
7.7419891357421875 
-39.67335891723633 
-1.651712417602539 
2.9151546955108643 
-2.9349145889282227 
-1.040166974067688 
5.207645893096924 
-22.24913215637207 
2.8547260761260986 
-0.4797438383102417 
6.262308120727539 
11.211204528808594 
3.1588425636291504 
2.7793288230895996 
-0.44909852743148804 
2.81239652633667 
-7.5679426193237305 
0.6405009627342224 
-1.9866677522659302 
10.330257415771484 
7.486952781677246 
-5.212207317352295 
-3.731721878051758 
-5.785855293273926 
6.296269416809082 
-2.274341106414795 
-6.860448360443115 
5.48164176940918 
-5.577147483825684 
10.334013938903809 
5.306735038757324 
1.2176778316497803 
-8.079882621765137 
-20.825042724609375 
-0.4492570161819458 
-2.3711390495300293 
-0.20745421946048737 
2.111720085144043 
-7.349766731262207 
-0.38065463304519653 
-15.12093734741211 
17.685035705566406 
-12.042014122009277 
0.21975451707839966 
-1.6230554580688477 
0.21085865795612335 
5.197697639465332 
-9.07636833190918 
-26.885831832885742 
-11.462723731994629 
5.187339782714844 
1.9044878482818604 
-2.5007987022399902 
-0.928226888179779 
7.115566730499268 
-6.867839336395264 
4.226767063140869 
-19.161924362182617 
10.892309188842773 
0.6192542314529419 
-5.173622131347656 
-10.380980491638184 
1.1011326313018799 
-2.8244054317474365 
12.66583251953125 
6.4984941482543945 
2.921992301940918 
14.553940773010254 
2.475193977355957 
2.873037338256836 
-5.2668938636779785 
10.303095817565918 
21.855722427368164 
-3.919912576675415 
-4.6808271408081055 
-4.2509026527404785 
-17.927547454833984 
-9.143403053283691 
-5.567673206329346 
4.652902126312256 
4.616811752319336 
8.06176471710205 
2.6124532222747803 
1.387397289276123 
-6.650643348693848 
-9.706037521362305 
2.0165257453918457 
-3.231241226196289 
-5.003654956817627 
-6.979483127593994 
-0.5320566296577454 
-3.5938913822174072 
-4.996733665466309 
-4.187778472900391 
15.940285682678223 
7.696723937988281 
5.0627522468566895 
4.186251163482666 
-13.739506721496582 
13.392918586730957 
-6.332686901092529 
-4.105645656585693 
13.75988483428955 
8.060507774353027 
-2.6481449604034424 
16.341890335083008 
0.8427425026893616 
-25.986923217773438 
-7.180668830871582 
-1.0128734111785889 
11.442831993103027 
7.88587760925293 
-12.163061141967773 
-5.466460704803467 
-4.703701496124268 
-7.592308521270752 
4.0159406661987305 
6.3697309494018555 
-2.3821048736572266 
-4.818815231323242 
-1.8409868478775024 
-2.4641454219818115 
9.302648544311523 
-1.9812504053115845 
-0.6606366038322449 
-1.7344392538070679 
3.1159284114837646 
-0.9817244410514832 
-2.1438632011413574 
7.5518012046813965 
-24.018442153930664 
3.7149174213409424 
-4.119186878204346 
-4.49077844619751 
-10.423534393310547 
6.127861976623535 
10.899832725524902 
1.1265590190887451 
14.620285987854004 
4.895802974700928 
2.2114627361297607 
-4.126775741577148 
0.4460769295692444 
-4.189417362213135 
-17.624980926513672 
2.5197839736938477 
-7.097023010253906 
27.7894229888916 
-5.818699359893799 
-6.651963233947754 
0.6840001344680786 
3.979729175567627 
-13.415515899658203 
3.1910550594329834 
-1.8836835622787476 
11.10831069946289 
-1.1691129207611084 
6.717743396759033 
-1.0786423683166504 
-4.98986291885376 
-7.288869380950928 
-1.5736547708511353 
0.14556731283664703 
3.8642072677612305 
-15.815101623535156 
-9.710861206054688 
-8.370933532714844 
-11.518952369689941 
-9.595647811889648 
-5.540657997131348 
-1.5045642852783203 
-7.08555793762207 
20.28924560546875 
17.680540084838867 
0.5066049098968506 
-1.188704252243042 
1.7743796110153198 
7.100665092468262 
-3.715008497238159 
7.96640157699585 
4.061552047729492 
1.2964239120483398 
3.644695997238159 
-3.6995325088500977 
17.102123260498047 
6.499474048614502 
6.082555294036865 
2.600473403930664 
0.369907408952713 
-8.641575813293457 
5.030170440673828 
13.43218994140625 
1.2960095405578613 
0.006091510411351919 
5.729773044586182 
8.661940574645996 
6.477595806121826 
-0.6727200150489807 
-11.057711601257324 
2.178386926651001 
2.6453075408935547 
3.4206502437591553 
9.680779457092285 
-9.617936134338379 
-14.213326454162598 
6.569786548614502 
15.816572189331055 
14.490274429321289 
0.910185694694519 
0.45169466733932495 
6.024011135101318 
2.181833028793335 
-7.89474630355835 
-7.327406406402588 
2.4329795837402344 
-0.6057331562042236 
-11.726303100585938 
-3.20904803276062 
0.15802450478076935 
10.69172477722168 
-1.9164423942565918 
-2.5594980716705322 
-0.14907005429267883 
-17.130455017089844 
15.593310356140137 
-23.719934463500977 
-2.167248010635376 
1.5244632959365845 
3.323582172393799 
-0.5436277389526367 
-6.57991886138916 
4.437893390655518 
-2.3694252967834473 
-14.216144561767578 
9.490859031677246 
-16.798969268798828 
-12.817325592041016 
-10.286307334899902 
-4.412876129150391 
-1.8042832612991333 
-12.531292915344238 
12.33574390411377 
-4.25767707824707 
10.803919792175293 
5.09899377822876 
2.659374713897705 
-7.128457546234131 
-7.411845684051514 
-2.4458625316619873 
-0.3927529752254486 
-18.09870147705078 
2.3403828144073486 
-11.136964797973633 
-6.012657642364502 
7.071715354919434 
-14.39037799835205 
9.10293960571289 
-17.054868698120117 
6.650912761688232 
4.366292476654053 
5.292425632476807 
-16.98535919189453 
-26.785688400268555 
8.77677059173584 
-1.200236201286316 
8.333876609802246 
-3.3608696460723877 
2.227097749710083 
-2.3745386600494385 
7.770760536193848 
6.07944917678833 
1.9700521230697632 
6.442352771759033 
-8.452827453613281 
-2.2892682552337646 
-3.2254111766815186 
-8.39802074432373 
9.027444839477539 
6.258636951446533 
-10.957869529724121 
-0.3690224289894104 
0.7778455018997192 
5.345533847808838 
3.9061005115509033 
-5.251794338226318 
4.101093769073486 
-10.635453224182129 
-0.5680301189422607 
14.327371597290039 
25.429983139038086 
-20.87324333190918 
-17.902233123779297 
2.4196691513061523 
2.019479513168335 
15.41666030883789 
-5.691766738891602 
25.90593147277832 
2.556851387023926 
-5.905595779418945 
-13.008423805236816 
6.755476951599121 
-0.19613370299339294 
-18.603679656982422 
-1.289523959159851 
-18.091798782348633 
-14.592049598693848 
2.986726999282837 
3.6639211177825928 
-0.9603336453437805 
-11.051207542419434 
0.9999498128890991 
-1.3855069875717163 
7.27304744720459 
-0.757011353969574 
2.8012478351593018 
-2.107431650161743 
-0.17021186649799347 
15.445971488952637 
2.4285964965820312 
6.977778434753418 
-5.555388450622559 
-5.020061492919922 
14.90561580657959 
11.26945686340332 
12.655888557434082 
-18.158958435058594 
-21.392515182495117 
3.158649444580078 
7.532610893249512 
-7.669764041900635 
17.837299346923828 
-9.537489891052246 
-10.81396770477295 
-20.68653106689453 
20.64400863647461 
3.190699338912964 
0.9202348589897156 
-1.998702883720398 
7.002098083496094 
10.214235305786133 
-8.942350387573242 
5.5030670166015625 
-7.181884765625 
-1.2906051874160767 
-6.1453704833984375 
-1.6390371322631836 
8.12300968170166 
14.589323997497559 
0.5568727254867554 
-1.502361536026001 
-7.968029022216797 
-5.538963317871094 
-0.2964208424091339 
8.063432693481445 
4.078397750854492 
0.5864409804344177 
13.713082313537598 
1.6920746564865112 
-4.069028377532959 
0.8709375858306885 
-6.385953903198242 
-6.116361141204834 
-11.457930564880371 
2.7754595279693604 
-10.739965438842773 
-9.355178833007812 
2.6944386959075928 
16.7175350189209 
11.54549503326416 
-9.275684356689453 
2.3347954750061035 
0.08090127259492874 
10.95858097076416 
5.423512935638428 
-4.958975315093994 
3.907700777053833 
-4.805392265319824 
4.834721565246582 
-5.866413116455078 
7.914456367492676 
-2.4424996376037598 
2.4066481590270996 
-2.6219587326049805 
-0.7983449697494507 
-7.542145729064941 
-5.840693473815918 
7.050111770629883 
0.5648853778839111 
14.609525680541992 
-3.8351800441741943 
-12.443256378173828 
-7.073966979980469 
